%YAML:1.0
---
opencv_ml_svm:
   format: 3
   svmType: C_SVC
   kernel:
      type: RBF
      gamma: 5.0625000000000009e-01
   C: 3.1250000000000000e+02
   term_criteria: { iterations:100 }
   var_count: 32
   class_count: 32
   class_labels: !!opencv-matrix
      rows: 32
      cols: 1
      dt: i
      data: [ 0, 1, 2, 3, 4, 5, 6, 7, 8, 9, 10, 11, 12, 13, 14, 15, 16,
          17, 18, 19, 20, 21, 22, 23, 24, 25, 26, 27, 28, 29, 30, 31 ]
   sv_total: 171
   support_vectors:
      - [ 1.97740104e-02, 7.06214681e-02, 8.75706226e-02, 7.34463260e-02,
          8.05084780e-02, 4.23728824e-02, 2.82485876e-02, 6.77966103e-02,
          4.66101691e-02, 5.64971752e-03, 3.67231630e-02, 9.03954804e-02,
          8.19209069e-02, 1.15819208e-01, 9.88700539e-02, 5.36723174e-02,
          2.51412421e-01, 2.18926564e-01, 1.79378524e-01, 3.50282490e-01,
          2.28813559e-01, 2.34463274e-01, 2.51412421e-01, 2.85310745e-01,
          1.52542368e-01, 1.89265534e-01, 2.13276833e-01, 2.57062137e-01,
          2.50000000e-01, 2.79661000e-01, 1.12994350e-01, 8.87005627e-01 ]
      - [ 4.80132438e-02, 8.27814564e-02, 1.57284766e-01, 1.02649003e-01,
          5.62913902e-02, 1.65562909e-02, 1.65562909e-02, 7.78145716e-02,
          4.47019860e-02, 9.93377529e-03, 1.65562909e-02, 9.10596028e-02,
          7.94702023e-02, 6.95364252e-02, 8.27814564e-02, 4.80132438e-02,
          3.90728474e-01, 1.67218536e-01, 1.62251651e-01, 2.79801339e-01,
          2.28476822e-01, 1.78807944e-01, 2.73178816e-01, 3.19536418e-01,
          1.29139066e-01, 2.08609268e-01, 2.03642383e-01, 3.54304641e-01,
          2.03642383e-01, 2.38410592e-01, 5.96026480e-02, 9.40397322e-01 ]
      - [ 2.78232414e-02, 7.36497566e-02, 9.81996730e-02, 6.54664487e-02,
          9.32896882e-02, 3.27332243e-02, 3.27332243e-02, 9.16530266e-02,
          7.69230798e-02, 3.27332243e-02, 5.23731597e-02, 9.65630114e-02,
          5.72831407e-02, 8.83797035e-02, 4.90998365e-02, 3.10965627e-02,
          2.65139133e-01, 2.50409156e-01, 2.58592486e-01, 2.25859240e-01,
          2.55319148e-01, 2.27495909e-01, 2.32405901e-01, 2.84779042e-01,
          1.44026190e-01, 1.88216031e-01, 2.27495909e-01, 2.88052380e-01,
          2.55319148e-01, 2.29132563e-01, 1.50572836e-01, 8.49427164e-01 ]
      - [ 7.30948672e-02, 9.33125988e-02, 9.33125988e-02, 6.06531873e-02,
          7.46500790e-02, 1.55520998e-02, 1.55520998e-02, 8.24261308e-02,
          7.77604952e-02, 1.55520998e-02, 1.55520998e-02, 7.30948672e-02,
          5.90979792e-02, 9.33125988e-02, 9.33125988e-02, 6.37636110e-02,
          3.20373237e-01, 1.88180417e-01, 1.81959569e-01, 3.09486777e-01,
          2.84603417e-01, 2.17729390e-01, 2.17729390e-01, 2.79937804e-01,
          1.67962670e-01, 1.50855362e-01, 2.56609648e-01, 2.51944005e-01,
          2.45723173e-01, 2.45723173e-01, 6.22083992e-02, 9.37791586e-01 ]
      - [ 4.82456125e-02, 1.02339178e-01, 1.02339178e-01, 6.72514588e-02,
          7.60233924e-02, 3.50877196e-02, 1.46198831e-02, 6.43274859e-02,
          5.99415191e-02, 2.04678364e-02, 4.38596494e-02, 8.04093555e-02,
          7.30994120e-02, 1.02339178e-01, 7.30994120e-02, 3.65497060e-02,
          3.20175439e-01, 1.90058485e-01, 2.04678357e-01, 2.85087705e-01,
          2.57309943e-01, 2.60233909e-01, 2.33918130e-01, 2.48538002e-01,
          1.63742691e-01, 1.75438583e-01, 2.61695892e-01, 2.48538002e-01,
          2.55847931e-01, 2.33918130e-01, 1.14035085e-01, 8.85964870e-01 ]
      - [ 6.59488589e-02, 9.42126513e-02, 7.80619085e-02, 4.84522209e-02,
          5.65275922e-02, 2.96096914e-02, 5.11440113e-02, 9.28667560e-02,
          6.86406493e-02, 1.88425295e-02, 1.34589504e-02, 5.51816970e-02,
          3.76850590e-02, 7.53701180e-02, 9.82503369e-02, 1.15746975e-01,
          2.86675632e-01, 2.30148047e-01, 1.56123832e-01, 3.27052474e-01,
          2.28802159e-01, 2.18034983e-01, 2.40915209e-01, 3.12247634e-01,
          2.24764481e-01, 1.56123817e-01, 2.46298790e-01, 2.70524889e-01,
          2.00538352e-01, 2.82637954e-01, 1.13055184e-01, 8.86944830e-01 ]
      - [ 3.06278709e-02, 6.12557419e-02, 9.18836147e-02, 8.26952532e-02,
          9.34150070e-02, 3.36906575e-02, 1.53139355e-02, 6.58499226e-02,
          8.72894302e-02, 1.53139355e-02, 2.75650844e-02, 8.57580379e-02,
          8.26952532e-02, 9.18836147e-02, 8.88208300e-02, 4.59418073e-02,
          2.66462475e-01, 2.08269522e-01, 2.15926483e-01, 3.09341490e-01,
          2.94027567e-01, 2.02143952e-01, 2.23583460e-01, 2.80245006e-01,
          1.37825415e-01, 1.96018383e-01, 2.18989283e-01, 2.55742729e-01,
          2.77182221e-01, 2.48085767e-01, 9.18836147e-02, 9.08116400e-01 ]
      - [ 6.50636479e-02, 0., 0., 0., 9.61810499e-02, 0., 0., 0.,
          1.41442716e-01, 1.41442716e-01, 1.41442716e-01, 7.21357837e-02,
          3.11173983e-02, 7.07213581e-02, 1.13154173e-01, 1.27298445e-01,
          6.50636479e-02, 9.61810499e-02, 4.96463925e-01, 3.42291385e-01,
          3.33804816e-01, 2.12164074e-01, 2.54596889e-01, 1.99434221e-01,
          3.33804816e-01, 1.72560111e-01, 1.61244690e-01, 0.,
          3.84724200e-01, 4.54031110e-01, 2.82885432e-01, 7.17114568e-01 ]
      - [ 5.32915369e-02, 0., 0., 0., 1.08150467e-01, 3.13479640e-02,
          3.13479640e-02, 3.76175530e-02, 1.44200623e-01, 1.56739816e-01,
          1.53605014e-01, 1.17554858e-01, 7.36677125e-02, 6.42633215e-02,
          2.82131657e-02, 0., 5.32915369e-02, 2.08463952e-01,
          5.72100282e-01, 1.66144192e-01, 3.79310340e-01, 2.52351105e-01,
          2.13166147e-01, 1.55172408e-01, 2.38244519e-01, 2.61755496e-01,
          1.92789972e-01, 6.89655170e-02, 4.38871473e-01, 2.99373031e-01,
          3.73040766e-01, 6.26959264e-01 ]
      - [ 4.45859879e-02, 0., 0., 0., 8.75796154e-02, 0., 2.86624208e-02,
          5.73248416e-02, 1.38535038e-01, 1.44904464e-01, 1.59235671e-01,
          1.24203824e-01, 1.27388537e-01, 5.57324849e-02, 3.18471342e-02,
          0., 4.45859879e-02, 1.73566878e-01, 5.66878974e-01,
          2.14968160e-01, 3.98089170e-01, 2.00636953e-01, 2.19745219e-01,
          1.81528658e-01, 2.03821659e-01, 3.00955415e-01, 1.32165611e-01,
          8.59872624e-02, 4.66560513e-01, 3.15286636e-01, 3.32802564e-01,
          6.67197466e-01 ]
      - [ 4.36619706e-02, 0., 0., 0., 7.60563388e-02, 0., 0., 0.,
          1.05633803e-01, 5.91549277e-02, 8.45070407e-02, 6.76056370e-02,
          1.40845075e-01, 1.40845075e-01, 1.40845075e-01, 1.40845075e-01,
          4.36619706e-02, 7.60563388e-02, 3.16901416e-01, 5.63380301e-01,
          3.66197199e-01, 2.00000003e-01, 2.25352108e-01, 2.08450705e-01,
          2.69014090e-01, 2.00000003e-01, 1.19718313e-01, 0.,
          4.46478873e-01, 4.33802843e-01, 1.43661976e-01, 8.56338024e-01 ]
      - [ 1.82119198e-02, 0., 0., 0., 7.28476793e-02, 0., 3.97351012e-02,
          8.94039720e-02, 1.29139066e-01, 1.39072850e-01, 1.65562913e-01,
          1.44039735e-01, 7.61589408e-02, 8.27814564e-02, 2.98013240e-02,
          1.32450331e-02, 1.82119198e-02, 2.01986760e-01, 5.77814579e-01,
          2.01986760e-01, 2.96357602e-01, 2.21854299e-01, 2.35099345e-01,
          2.46688738e-01, 1.97019860e-01, 2.54966885e-01, 9.10595953e-02,
          1.29139066e-01, 4.27152306e-01, 3.52649003e-01, 3.44370872e-01,
          6.55629098e-01 ]
      - [ 8.09968859e-02, 0., 0., 0., 1.13707162e-01, 0., 0., 0.,
          1.55763239e-01, 1.23052962e-01, 1.09034270e-01, 6.07476644e-02,
          4.04984429e-02, 7.00934604e-02, 1.18380062e-01, 1.27725855e-01,
          8.09968859e-02, 1.13707162e-01, 4.48598146e-01, 3.56697828e-01,
          3.90965730e-01, 1.93146423e-01, 2.27414340e-01, 1.88473523e-01,
          3.17757010e-01, 1.63551405e-01, 1.94704056e-01, 0.,
          3.89408112e-01, 4.15887862e-01, 2.32087225e-01, 7.67912745e-01 ]
      - [ 8.73146653e-02, 0., 0., 0., 1.31795719e-01, 3.29489284e-03, 0.,
          0., 1.61449760e-01, 1.35090604e-01, 1.07084021e-01,
          7.41350874e-02, 2.96540353e-02, 7.24876449e-02, 8.23723227e-02,
          1.15321249e-01, 8.73146653e-02, 1.35090619e-01, 4.77759480e-01,
          2.99835265e-01, 4.10214186e-01, 2.10873142e-01, 1.89456344e-01,
          1.89456344e-01, 3.13014835e-01, 1.64744645e-01, 2.22405285e-01,
          0., 3.98682058e-01, 3.78912687e-01, 2.45469525e-01,
          7.54530489e-01 ]
      - [ 7.40131587e-02, 0., 6.57894742e-03, 9.21052620e-02,
          8.22368413e-02, 1.48026319e-02, 1.18421055e-01, 1.44736841e-01,
          1.36513159e-01, 1.26644731e-01, 2.96052638e-02, 8.71710554e-02,
          3.61842103e-02, 9.86842066e-03, 0., 4.11184207e-02,
          1.72697365e-01, 3.60197365e-01, 3.79934222e-01, 8.71710479e-02,
          3.28947365e-01, 1.51315778e-01, 1.54605269e-01, 3.65131587e-01,
          1.59539476e-01, 3.73355269e-01, 1.71052635e-01, 3.61842096e-01,
          3.09210509e-01, 1.57894745e-01, 2.89473683e-01, 7.10526288e-01 ]
      - [ 1.26738802e-01, 0., 0., 3.09119020e-02, 8.80989209e-02,
          3.09119001e-03, 8.96445140e-02, 1.49922714e-01, 1.19010821e-01,
          1.26738802e-01, 5.40958270e-02, 8.80989209e-02, 5.56414202e-02,
          3.09119020e-02, 0., 3.70942801e-02, 1.57650709e-01,
          3.30757350e-01, 3.87944371e-01, 1.23647600e-01, 3.89489949e-01,
          1.60741895e-01, 1.43740341e-01, 3.06027830e-01, 2.21020103e-01,
          3.02936643e-01, 2.17928916e-01, 2.70479143e-01, 3.32302958e-01,
          1.79289028e-01, 2.73570329e-01, 7.26429701e-01 ]
      - [ 4.48717959e-02, 0., 1.12179490e-02, 1.21794872e-01,
          7.69230798e-02, 3.20512825e-03, 1.13782048e-01, 1.26602560e-01,
          9.61538479e-02, 1.08974360e-01, 4.80769239e-02, 8.01282078e-02,
          8.65384638e-02, 4.48717959e-02, 0., 3.68589759e-02,
          1.77884623e-01, 3.20512831e-01, 3.33333343e-01, 1.68269232e-01,
          3.04487199e-01, 1.57051280e-01, 1.73076928e-01, 3.65384609e-01,
          1.33012831e-01, 4.31089759e-01, 1.25000000e-01, 3.73397440e-01,
          3.36538464e-01, 1.65064111e-01, 2.74038464e-01, 7.25961566e-01 ]
      - [ 1.79372206e-02, 0., 1.79372206e-02, 1.37518689e-01,
          7.62331858e-02, 2.98953662e-03, 1.00149475e-01, 1.31539613e-01,
          7.17488825e-02, 8.81913304e-02, 3.58744413e-02, 1.00149475e-01,
          9.71599370e-02, 7.17488825e-02, 0., 5.08221239e-02,
          1.73393130e-01, 3.10911804e-01, 2.95964122e-01, 2.19730943e-01,
          2.63079226e-01, 1.62929744e-01, 1.53961137e-01, 4.20029908e-01,
          1.07623324e-01, 4.23019439e-01, 9.71599445e-02, 3.87144983e-01,
          3.28849018e-01, 1.86846048e-01, 2.27204785e-01, 7.72795200e-01 ]
      - [ 2.81249993e-02, 0., 2.81249993e-02, 1.37500003e-01,
          6.71875030e-02, 3.12500005e-03, 1.01562500e-01, 1.40625000e-01,
          9.06250030e-02, 9.21875015e-02, 4.84374985e-02, 7.50000030e-02,
          9.06250030e-02, 6.87500015e-02, 0., 2.81249993e-02,
          1.93749994e-01, 3.12500000e-01, 3.06250006e-01, 1.87500000e-01,
          2.76562512e-01, 1.64062500e-01, 1.78124994e-01, 3.81249994e-01,
          1.07812494e-01, 4.21875000e-01, 9.84375030e-02, 4.07812506e-01,
          3.42187524e-01, 1.51562497e-01, 2.45312497e-01, 7.54687488e-01 ]
      - [ 5.02958596e-02, 0., 4.43786988e-03, 1.06508873e-01,
          9.31952670e-02, 1.47928996e-03, 8.57988149e-02, 1.22781068e-01,
          1.15384616e-01, 9.91124287e-02, 4.58579883e-02, 7.39644989e-02,
          1.18343197e-01, 4.73372787e-02, 0., 3.55029590e-02,
          1.61242604e-01, 3.03254426e-01, 3.34319532e-01, 2.01183438e-01,
          3.77218932e-01, 1.47928998e-01, 1.36094674e-01, 3.38757396e-01,
          1.33136094e-01, 4.09763306e-01, 1.44970417e-01, 3.19526613e-01,
          3.80177528e-01, 1.55325443e-01, 2.32248515e-01, 7.67751515e-01 ]
      - [ 6.28183335e-02, 0., 2.03735139e-02, 1.08658746e-01,
          9.50763971e-02, 1.01867570e-02, 1.17147706e-01, 1.01867571e-01,
          1.40916809e-01, 1.27334461e-01, 2.71646865e-02, 5.09337857e-02,
          9.16808173e-02, 3.05602718e-02, 0., 1.52801359e-02,
          1.91850588e-01, 3.24278444e-01, 3.46349746e-01, 1.37521222e-01,
          3.90492350e-01, 1.68081492e-01, 1.64685905e-01, 2.76740253e-01,
          1.15449913e-01, 4.44821715e-01, 1.68081492e-01, 3.48047525e-01,
          3.90492350e-01, 9.33786109e-02, 2.81833619e-01, 7.18166411e-01 ]
      - [ 1.34003349e-02, 0., 1.34003349e-02, 1.10552765e-01,
          8.54271352e-02, 8.37520976e-03, 1.23953097e-01, 1.13902844e-01,
          8.71021748e-02, 1.22278057e-01, 4.35510874e-02, 8.20770487e-02,
          1.28978223e-01, 4.35510874e-02, 0., 2.34505869e-02,
          1.37353435e-01, 3.31658274e-01, 3.35008383e-01, 1.95979893e-01,
          3.14907879e-01, 1.74204350e-01, 1.80904523e-01, 3.29983234e-01,
          8.87772217e-02, 4.85762149e-01, 1.07202679e-01, 3.61809045e-01,
          3.81909549e-01, 1.49078727e-01, 2.98157454e-01, 7.01842546e-01 ]
      - [ 5.90979792e-02, 0., 0., 4.82115075e-02, 7.93157071e-02,
          1.39968898e-02, 1.39968898e-02, 9.02021751e-02, 7.93157071e-02,
          5.13219275e-02, 4.19906676e-02, 7.93157071e-02, 9.02021751e-02,
          1.22861587e-01, 1.36858478e-01, 9.33125988e-02, 1.07309490e-01,
          1.97511658e-01, 2.51944005e-01, 4.43234831e-01, 3.07931572e-01,
          1.88180402e-01, 1.92846030e-01, 3.11041981e-01, 2.08398134e-01,
          2.03732505e-01, 1.52410582e-01, 1.52410567e-01, 3.43701392e-01,
          3.51477444e-01, 1.21306375e-01, 8.78693640e-01 ]
      - [ 1.97044332e-02, 0., 0., 7.38916248e-02, 8.21018070e-02,
          2.13464703e-02, 4.92610829e-03, 9.19540226e-02, 7.22495914e-02,
          7.06075504e-02, 7.71756992e-02, 1.05090313e-01, 1.28078818e-01,
          1.26436785e-01, 8.21018070e-02, 4.43349741e-02, 9.35960561e-02,
          2.00328410e-01, 3.25123161e-01, 3.80952388e-01, 3.02134663e-01,
          2.18390808e-01, 1.64203614e-01, 3.15270931e-01, 1.62561581e-01,
          2.77504116e-01, 1.23152710e-01, 1.70771763e-01, 3.97372752e-01,
          3.08702797e-01, 1.74055830e-01, 8.25944185e-01 ]
      - [ 8.00604224e-02, 0., 0., 1.02719031e-01, 5.13595156e-02,
          1.51057402e-02, 1.20845921e-02, 7.70392716e-02, 4.83383685e-02,
          4.68277931e-02, 4.98489439e-02, 7.40181282e-02, 9.21450183e-02,
          1.19335346e-01, 1.28398791e-01, 1.02719031e-01, 1.82779461e-01,
          1.55589119e-01, 2.19033241e-01, 4.42598194e-01, 2.71903336e-01,
          1.81268886e-01, 1.90332323e-01, 3.56495470e-01, 2.47734144e-01,
          2.53776431e-01, 1.46525681e-01, 1.91842899e-01, 3.06646526e-01,
          3.54984879e-01, 1.23867072e-01, 8.76132905e-01 ]
      - [ 4.00667787e-02, 0., 0., 5.67612685e-02, 7.84641057e-02,
          2.00333893e-02, 2.67111845e-02, 9.84974951e-02, 8.84808004e-02,
          8.84808004e-02, 1.03505842e-01, 1.08514190e-01, 6.67779669e-02,
          8.68113488e-02, 8.68113488e-02, 5.00834733e-02, 9.68280435e-02,
          2.23706171e-01, 3.88981640e-01, 2.90484130e-01, 2.73789644e-01,
          1.95325539e-01, 2.17028379e-01, 3.13856423e-01, 2.13689476e-01,
          2.38731220e-01, 1.38564274e-01, 1.81969941e-01, 3.30550909e-01,
          3.48914862e-01, 2.38731220e-01, 7.61268795e-01 ]
      - [ 4.30769213e-02, 0., 0., 6.46153837e-02, 8.15384611e-02,
          1.84615385e-02, 1.53846154e-02, 9.38461572e-02, 8.92307684e-02,
          6.92307726e-02, 6.61538467e-02, 9.38461572e-02, 1.00000001e-01,
          1.16923079e-01, 9.23076943e-02, 5.53846136e-02, 1.07692301e-01,
          2.09230766e-01, 3.18461537e-01, 3.64615381e-01, 3.13846141e-01,
          2.04615384e-01, 1.73846155e-01, 3.07692319e-01, 1.83076918e-01,
          2.49230772e-01, 1.43076926e-01, 1.73846155e-01, 3.75384629e-01,
          3.07692319e-01, 1.69230774e-01, 8.30769241e-01 ]
      - [ 5.64024374e-02, 0., 0., 2.43902430e-02, 8.53658542e-02,
          1.52439028e-02, 2.13414636e-02, 9.45121944e-02, 1.09756097e-01,
          9.75609720e-02, 8.07926804e-02, 8.84146318e-02, 4.11585383e-02,
          7.62195140e-02, 1.11280486e-01, 9.75609720e-02, 8.07926804e-02,
          2.16463417e-01, 3.76524389e-01, 3.26219499e-01, 2.92682916e-01,
          1.89024389e-01, 2.13414624e-01, 3.04878056e-01, 2.50000000e-01,
          1.84451222e-01, 1.57012194e-01, 1.40243903e-01, 3.24695110e-01,
          3.78048778e-01, 2.14939013e-01, 7.85060942e-01 ]
      - [ 2.06185561e-02, 0., 0., 7.21649453e-02, 1.06529206e-01,
          6.87285233e-03, 6.87285233e-03, 1.01374574e-01, 7.04467371e-02,
          5.67010306e-02, 5.84192425e-02, 1.04810998e-01, 1.16838485e-01,
          1.23711340e-01, 8.93470794e-02, 6.52920976e-02, 9.27835032e-02,
          2.21649483e-01, 2.90378004e-01, 3.95188987e-01, 3.14432979e-01,
          1.87285230e-01, 1.54639170e-01, 3.43642622e-01, 1.51202753e-01,
          2.52577305e-01, 1.34020612e-01, 1.80412367e-01, 3.67697597e-01,
          3.17869425e-01, 1.28865972e-01, 8.71134043e-01 ]
      - [ 1.15131577e-02, 5.42763174e-02, 1.25000000e-01, 5.92105277e-02,
          1.06907897e-01, 1.08552635e-01, 9.04605240e-02, 6.57894760e-02,
          0., 0., 5.09868413e-02, 1.26644731e-01, 0., 0., 4.93421070e-02,
          1.51315793e-01, 2.50000000e-01, 3.71710539e-01, 1.77631572e-01,
          2.00657904e-01, 1.18421055e-01, 1.62828952e-01, 3.15789461e-01,
          4.02960539e-01, 3.22368413e-01, 1.49671048e-01, 2.81250000e-01,
          3.40460539e-01, 0., 3.78289461e-01, 2.50000000e-01,
          7.50000000e-01 ]
      - [ 0., 2.97723301e-02, 1.33099824e-01, 2.27670744e-02,
          4.55341488e-02, 1.54115587e-01, 1.15586691e-01, 3.85288969e-02,
          8.75656754e-02, 2.45183893e-02, 8.40630457e-02, 1.36602446e-01,
          0., 0., 6.12959713e-02, 6.65499121e-02, 1.85639232e-01,
          3.53765309e-01, 3.32749546e-01, 1.27845883e-01, 1.33099824e-01,
          2.08406299e-01, 3.94045532e-01, 2.64448345e-01, 3.04728538e-01,
          1.62872151e-01, 2.29422063e-01, 3.09982479e-01, 1.12084061e-01,
          3.48511368e-01, 3.78283709e-01, 6.21716261e-01 ]
      - [ 8.72600358e-03, 4.88656200e-02, 1.11692846e-01, 3.83944139e-02,
          1.29144847e-01, 1.46596864e-01, 1.08202443e-01, 5.93368225e-02,
          1.39616057e-02, 0., 7.15532303e-02, 1.23909250e-01, 0., 0.,
          4.71204184e-02, 9.24956352e-02, 2.07678884e-01, 4.43280965e-01,
          2.09424078e-01, 1.39616057e-01, 1.51832461e-01, 1.95462480e-01,
          3.38568926e-01, 3.14136118e-01, 3.19371730e-01, 1.46596849e-01,
          3.33333343e-01, 3.17626536e-01, 1.39616057e-02, 3.35078537e-01,
          3.26352537e-01, 6.73647463e-01 ]
      - [ 0., 3.58422939e-03, 1.16487458e-01, 2.86738351e-02,
          7.16845877e-03, 1.07526883e-01, 1.14695340e-01, 3.94265242e-02,
          1.18279569e-01, 5.19713275e-02, 6.45161271e-02, 1.54121861e-01,
          2.32974906e-02, 0., 6.09318987e-02, 1.09318994e-01,
          1.48745522e-01, 2.68817216e-01, 3.88888896e-01, 1.93548381e-01,
          1.48745522e-01, 1.63082436e-01, 3.56630832e-01, 3.31541210e-01,
          2.81361997e-01, 2.18637988e-01, 1.18279569e-01, 2.99283147e-01,
          1.93548381e-01, 3.88888896e-01, 3.38709682e-01, 6.61290348e-01 ]
      - [ 9.63081885e-03, 7.38362744e-02, 1.47672549e-01, 2.56821830e-02,
          1.25200644e-01, 1.04333870e-01, 8.66773650e-02, 3.21027301e-02,
          0., 0., 7.38362744e-02, 8.82825032e-02, 0., 0., 8.98876414e-02,
          1.42857149e-01, 2.56821811e-01, 3.48314613e-01, 1.62118778e-01,
          2.32744783e-01, 1.34831458e-01, 1.78170145e-01, 3.98073822e-01,
          2.88924575e-01, 3.30658108e-01, 1.12359546e-01, 3.13001603e-01,
          2.92134821e-01, 0., 3.94863576e-01, 2.64847517e-01,
          7.35152483e-01 ]
      - [ 0., 1.68350164e-03, 5.21885529e-02, 6.56565651e-02,
          2.86195278e-02, 1.17845118e-01, 1.27946123e-01, 9.25925896e-02,
          9.25925896e-02, 4.54545468e-02, 2.86195278e-02, 1.49831653e-01,
          0., 0., 4.71380465e-02, 1.49831653e-01, 1.19528621e-01,
          3.67003351e-01, 3.16498309e-01, 1.96969703e-01, 1.21212117e-01,
          1.64983168e-01, 2.55892247e-01, 4.57912445e-01, 2.96296299e-01,
          2.39057243e-01, 1.48148149e-01, 3.38383824e-01, 1.38047129e-01,
          3.75420868e-01, 3.19865316e-01, 6.80134654e-01 ]
      - [ 0., 4.06249985e-02, 9.68749970e-02, 7.18749985e-02,
          9.68749970e-02, 1.46874994e-01, 9.21875015e-02, 7.81250000e-02,
          4.68750000e-02, 3.12500005e-03, 5.15624993e-02, 1.43749997e-01,
          0., 0., 2.50000004e-02, 1.06250003e-01, 2.09374994e-01,
          4.14062500e-01, 2.45312497e-01, 1.31250009e-01, 1.43749997e-01,
          1.90624997e-01, 2.65625000e-01, 4.00000006e-01, 3.04687500e-01,
          1.67187497e-01, 2.84374982e-01, 3.39062512e-01, 5.00000007e-02,
          3.26562494e-01, 2.93749988e-01, 7.06250012e-01 ]
      - [ 1.14630468e-01, 1.01055808e-01, 0., 4.07239832e-02,
          7.08898976e-02, 9.04977396e-02, 0., 7.54147843e-02,
          6.03318252e-02, 8.14479664e-02, 3.01659130e-03, 7.84313753e-02,
          4.22322787e-02, 4.07239832e-02, 1.05580695e-01, 9.50226262e-02,
          2.56410271e-01, 2.36802429e-01, 2.23227754e-01, 2.83559591e-01,
          2.88084477e-01, 3.13725501e-01, 1.08597286e-01, 2.89592773e-01,
          3.03167433e-01, 1.64404228e-01, 3.77073914e-01, 1.16138771e-01,
          2.24736050e-01, 2.82051295e-01, 1.74962297e-01, 8.25037718e-01 ]
      - [ 9.75609720e-02, 7.80487806e-02, 0., 4.22764234e-02,
          1.15447156e-01, 1.04065038e-01, 0., 9.26829278e-02,
          7.47967511e-02, 8.61788616e-02, 2.11382117e-02, 8.61788616e-02,
          6.01626001e-02, 2.76422761e-02, 7.80487806e-02, 3.57723571e-02,
          2.17886180e-01, 3.12195122e-01, 2.68292695e-01, 2.01626018e-01,
          3.47967476e-01, 2.95934945e-01, 9.91869941e-02, 2.56910563e-01,
          2.58536577e-01, 1.88617885e-01, 3.95121932e-01, 1.34959355e-01,
          2.48780489e-01, 2.21138209e-01, 2.11382106e-01, 7.88617909e-01 ]
      - [ 5.74324317e-02, 5.40540554e-02, 0., 3.20945941e-02,
          1.23310812e-01, 1.11486487e-01, 0., 7.43243247e-02,
          6.75675645e-02, 8.27702731e-02, 6.75675645e-02, 8.95270258e-02,
          6.75675645e-02, 4.22297306e-02, 9.45945978e-02, 3.54729742e-02,
          1.43581077e-01, 3.09121609e-01, 3.07432413e-01, 2.39864871e-01,
          3.15878361e-01, 2.90540546e-01, 1.62162155e-01, 2.31418923e-01,
          2.71959454e-01, 1.82432428e-01, 3.46283793e-01, 1.06418923e-01,
          2.60135144e-01, 2.87162155e-01, 2.61824310e-01, 7.38175690e-01 ]
      - [ 6.93641603e-02, 7.22543374e-02, 0., 4.47976887e-02,
          1.08381502e-01, 1.18497111e-01, 0., 7.22543374e-02,
          7.22543374e-02, 7.65895918e-02, 4.33526002e-02, 9.53757241e-02,
          5.92485555e-02, 2.74566468e-02, 1.01156071e-01, 3.90173420e-02,
          1.86416179e-01, 2.99132943e-01, 2.87572265e-01, 2.26878613e-01,
          3.09248567e-01, 2.94797689e-01, 1.44508675e-01, 2.51445085e-01,
          2.70231217e-01, 1.80635840e-01, 3.68497103e-01, 1.17052026e-01,
          2.35549137e-01, 2.78901726e-01, 2.38439307e-01, 7.61560678e-01 ]
      - [ 5.29801324e-02, 7.61589408e-02, 0., 6.29139096e-02,
          1.27483442e-01, 1.20860927e-01, 0., 7.45033100e-02,
          8.27814564e-02, 6.62251636e-02, 8.27814564e-02, 1.07615896e-01,
          5.29801324e-02, 9.93377529e-03, 6.62251636e-02, 1.65562909e-02,
          1.92052990e-01, 3.22847664e-01, 3.39403987e-01, 1.45695359e-01,
          3.16225171e-01, 2.73178816e-01, 1.49006620e-01, 2.61589408e-01,
          2.73178816e-01, 1.82119206e-01, 3.77483428e-01, 1.37417227e-01,
          2.11920530e-01, 2.73178816e-01, 2.69867539e-01, 7.30132461e-01 ]
      - [ 4.11392413e-02, 6.96202517e-02, 0., 7.12025315e-02,
          1.23417720e-01, 1.20253168e-01, 0., 9.81012657e-02,
          8.86075944e-02, 8.54430348e-02, 9.81012657e-02, 1.17088608e-01,
          4.74683531e-02, 6.32911408e-03, 2.53164563e-02, 7.91139249e-03,
          1.81962028e-01, 3.41772139e-01, 3.89240503e-01, 8.70253146e-02,
          3.00632894e-01, 2.81645566e-01, 1.23417720e-01, 2.94303805e-01,
          2.67405063e-01, 2.04113916e-01, 3.54430377e-01, 1.69303805e-01,
          2.27848098e-01, 2.48417720e-01, 3.03797483e-01, 6.96202517e-01 ]
      - [ 8.26952532e-02, 7.96324685e-02, 0., 3.67534459e-02,
          9.64777917e-02, 9.80091915e-02, 0., 9.49463993e-02,
          7.65696764e-02, 7.19754994e-02, 3.98162343e-02, 9.95405838e-02,
          4.28790189e-02, 3.36906575e-02, 9.18836147e-02, 5.51301688e-02,
          1.99081168e-01, 2.89433390e-01, 2.87901998e-01, 2.23583460e-01,
          2.98621744e-01, 2.83307821e-01, 1.31699845e-01, 2.86370605e-01,
          2.75650859e-01, 1.51607960e-01, 3.56814712e-01, 1.31699845e-01,
          2.25114852e-01, 2.86370605e-01, 2.09800929e-01, 7.90199101e-01 ]
      - [ 1.21122599e-01, 1.16691284e-01, 0., 2.65878886e-02,
          9.01033953e-02, 1.01920240e-01, 0., 7.82865584e-02,
          5.90841956e-02, 7.68094510e-02, 2.95420978e-02, 8.12407658e-02,
          2.51107831e-02, 2.51107831e-02, 1.07828654e-01, 6.05612993e-02,
          2.64401764e-01, 2.70310193e-01, 2.46676505e-01, 2.18611524e-01,
          2.95420974e-01, 3.20531756e-01, 1.37370750e-01, 2.46676505e-01,
          3.13146234e-01, 1.28508121e-01, 4.29837525e-01, 1.04874447e-01,
          1.86115205e-01, 2.79172808e-01, 2.08271787e-01, 7.91728199e-01 ]
      - [ 1.33614630e-01, 1.29395217e-01, 0., 1.40646975e-02,
          7.59493634e-02, 8.57946575e-02, 0., 7.45428950e-02,
          5.62587902e-02, 6.75105453e-02, 1.54711669e-02, 7.59493634e-02,
          2.25035157e-02, 3.79746817e-02, 1.18143462e-01, 9.28270072e-02,
          2.77074546e-01, 2.36286908e-01, 2.15189859e-01, 2.71448672e-01,
          2.88326293e-01, 3.20675105e-01, 1.33614630e-01, 2.57383972e-01,
          3.27707469e-01, 1.04078755e-01, 4.24753875e-01, 8.86075944e-02,
          1.84247538e-01, 3.02390993e-01, 1.68776363e-01, 8.31223607e-01 ]
      - [ 4.40944880e-02, 5.98425195e-02, 0., 7.24409446e-02,
          1.22834645e-01, 1.18110240e-01, 0., 8.81889760e-02,
          6.29921257e-02, 8.18897635e-02, 6.45669326e-02, 1.13385826e-01,
          6.45669326e-02, 1.88976377e-02, 6.29921257e-02, 2.51968503e-02,
          1.76377952e-01, 3.29133868e-01, 3.22834641e-01, 1.71653539e-01,
          2.94488192e-01, 2.78740168e-01, 1.27559066e-01, 2.99212605e-01,
          2.51968503e-01, 2.18897641e-01, 3.44881892e-01, 1.60629928e-01,
          2.28346467e-01, 2.66141742e-01, 2.64566928e-01, 7.35433102e-01 ]
      - [ 8.81889760e-02, 9.44881886e-02, 9.44881886e-02, 5.66929132e-02,
          7.40157515e-02, 7.87401572e-02, 4.72440943e-02, 9.60629955e-02,
          5.66929132e-02, 3.77952754e-02, 2.51968503e-02, 7.40157515e-02,
          6.29921257e-03, 3.14960629e-03, 9.44881886e-02, 7.24409446e-02,
          3.33858252e-01, 2.96063006e-01, 1.93700790e-01, 1.76377952e-01,
          2.25196853e-01, 2.14173228e-01, 2.61417329e-01, 2.99212605e-01,
          2.64566928e-01, 1.48031503e-01, 3.35433066e-01, 2.94488192e-01,
          1.03937007e-01, 2.66141742e-01, 1.88976377e-01, 8.11023653e-01 ]
      - [ 6.66666701e-02, 8.33333358e-02, 8.33333358e-02, 4.16666679e-02,
          6.52777776e-02, 7.91666657e-02, 4.16666679e-02, 8.33333358e-02,
          5.55555560e-02, 6.38888925e-02, 1.25000002e-02, 6.80555552e-02,
          2.50000004e-02, 1.94444451e-02, 1.36111110e-01, 7.50000030e-02,
          2.75000006e-01, 2.69444436e-01, 2.00000003e-01, 2.55555570e-01,
          2.12500006e-01, 2.45833337e-01, 2.73611128e-01, 2.68055558e-01,
          2.33333334e-01, 1.72222227e-01, 2.94444442e-01, 2.50000000e-01,
          1.63888901e-01, 2.91666657e-01, 1.97222233e-01, 8.02777767e-01 ]
      - [ 4.44444455e-02, 8.33333358e-02, 1.23611107e-01, 8.74999985e-02,
          8.61111134e-02, 8.88888910e-02, 1.11111114e-02, 5.83333336e-02,
          5.55555560e-02, 4.72222231e-02, 2.77777780e-02, 7.77777806e-02,
          5.13888896e-02, 2.50000004e-02, 9.44444463e-02, 3.75000015e-02,
          3.38888884e-01, 2.44444445e-01, 2.08333343e-01, 2.08333343e-01,
          2.37500012e-01, 2.44444445e-01, 2.56944448e-01, 2.61111110e-01,
          1.98611110e-01, 1.97222218e-01, 3.02777797e-01, 2.80555546e-01,
          1.79166675e-01, 2.37500012e-01, 1.74999997e-01, 8.24999988e-01 ]
      - [ 3.47322710e-02, 8.68306831e-02, 1.20115772e-01, 8.53835046e-02,
          7.38060772e-02, 9.55137461e-02, 2.17076708e-02, 6.94645420e-02,
          4.92040515e-02, 5.20984083e-02, 5.78871183e-02, 8.97250399e-02,
          3.18379179e-02, 1.30246021e-02, 8.39363262e-02, 3.47322710e-02,
          3.27062219e-01, 2.60492027e-01, 2.48914614e-01, 1.63531125e-01,
          1.89580321e-01, 2.47467443e-01, 2.83646882e-01, 2.79305369e-01,
          2.22865403e-01, 1.91027507e-01, 2.90882766e-01, 2.96671480e-01,
          1.46164984e-01, 2.66280770e-01, 2.27206945e-01, 7.72793055e-01 ]
      - [ 9.24932957e-02, 1.34048253e-01, 1.34048253e-01, 8.44504014e-02,
          4.95978557e-02, 6.97050914e-02, 1.34048257e-02, 6.03217147e-02,
          4.42359261e-02, 5.22788204e-02, 1.34048257e-02, 6.16621971e-02,
          4.28954437e-02, 1.20643433e-02, 8.04289579e-02, 5.49597852e-02,
          4.45040196e-01, 1.93029493e-01, 1.71581775e-01, 1.90348536e-01,
          2.29222521e-01, 2.68096507e-01, 2.41286859e-01, 2.61394083e-01,
          2.30563000e-01, 1.93029493e-01, 3.45844507e-01, 2.92225182e-01,
          1.51474535e-01, 2.10455760e-01, 1.48793563e-01, 8.51206422e-01 ]
      - [ 7.08534643e-02, 9.98389721e-02, 7.72946849e-02, 2.57648956e-02,
          4.83091772e-02, 6.92431554e-02, 3.22061181e-02, 1.12721413e-01,
          6.44122362e-02, 6.76328465e-02, 6.44122390e-03, 7.40740746e-02,
          3.22061195e-03, 2.25442834e-02, 1.23993561e-01, 1.01449274e-01,
          2.73752004e-01, 2.62479872e-01, 2.12560385e-01, 2.51207739e-01,
          1.86795488e-01, 2.59259254e-01, 2.39935592e-01, 3.14009666e-01,
          2.47987121e-01, 1.28824472e-01, 2.88244784e-01, 2.47987106e-01,
          1.57809973e-01, 3.05958122e-01, 1.75523341e-01, 8.24476659e-01 ]
      - [ 6.32716045e-02, 1.45061731e-01, 1.54320985e-01, 8.02469105e-02,
          4.32098769e-02, 7.09876567e-02, 1.54320989e-02, 5.70987649e-02,
          4.78395075e-02, 6.17283955e-02, 2.93209869e-02, 6.63580224e-02,
          2.16049384e-02, 2.16049384e-02, 7.71604925e-02, 4.47530858e-02,
          4.42901224e-01, 1.86728403e-01, 2.05246910e-01, 1.65123463e-01,
          1.75925925e-01, 2.99382716e-01, 2.76234567e-01, 2.48456776e-01,
          2.08333328e-01, 1.79012343e-01, 3.22530866e-01, 3.07098746e-01,
          1.52777776e-01, 2.17592582e-01, 1.77469134e-01, 8.22530866e-01 ]
      - [ 7.73333311e-02, 1.33333340e-01, 1.17333330e-01, 8.53333324e-02,
          5.86666651e-02, 7.33333305e-02, 1.33333337e-02, 6.53333366e-02,
          6.26666695e-02, 4.93333340e-02, 2.93333326e-02, 7.46666640e-02,
          2.13333331e-02, 1.33333337e-02, 7.99999982e-02, 4.53333333e-02,
          4.13333327e-01, 2.10666671e-01, 2.16000006e-01, 1.59999996e-01,
          2.19999999e-01, 2.69333333e-01, 2.39999995e-01, 2.70666659e-01,
          2.25333333e-01, 1.69333339e-01, 3.42666656e-01, 2.81333327e-01,
          1.46666676e-01, 2.29333326e-01, 1.65333331e-01, 8.34666669e-01 ]
      - [ 5.83850928e-02, 1.21739127e-01, 1.24223605e-01, 8.44720528e-02,
          5.46583869e-02, 6.33540377e-02, 1.73913036e-02, 5.96273281e-02,
          5.09316772e-02, 4.59627323e-02, 1.49068320e-02, 6.08695634e-02,
          3.22981365e-02, 1.24223605e-02, 1.19254656e-01, 7.95031041e-02,
          3.88819873e-01, 1.95031062e-01, 1.72670811e-01, 2.43478253e-01,
          1.96273297e-01, 2.43478253e-01, 2.75776386e-01, 2.84472048e-01,
          2.16149062e-01, 1.80124223e-01, 2.98136652e-01, 2.85714298e-01,
          1.41614914e-01, 2.74534166e-01, 1.41614899e-01, 8.58385086e-01 ]
      - [ 2.75650844e-02, 6.12557419e-02, 8.88208300e-02, 6.12557419e-02,
          9.80091915e-02, 1.10260338e-01, 3.06278709e-02, 6.73813149e-02,
          6.27871379e-02, 6.73813149e-02, 3.67534459e-02, 7.65696764e-02,
          6.43185303e-02, 1.53139355e-02, 9.18836147e-02, 3.98162343e-02,
          2.38897398e-01, 3.06278706e-01, 2.43491575e-01, 2.11332321e-01,
          2.52679944e-01, 2.54211336e-01, 2.48085767e-01, 2.45022967e-01,
          2.14395106e-01, 2.23583460e-01, 2.97090352e-01, 2.48085752e-01,
          2.09800914e-01, 2.45022967e-01, 2.45022967e-01, 7.54977047e-01 ]
      - [ 6.04026839e-02, 0., 1.34228189e-02, 1.27516776e-01,
          1.02348991e-01, 2.68456377e-02, 1.37583897e-01, 6.20805360e-02,
          1.34228185e-01, 1.37583897e-01, 4.02684547e-02, 0.,
          1.34228185e-01, 2.34899335e-02, 0., 0., 2.01342285e-01,
          3.28859061e-01, 3.12080532e-01, 1.57718122e-01, 4.31208044e-01,
          1.87919468e-01, 1.91275164e-01, 1.89597309e-01, 1.27516776e-01,
          5.36912739e-01, 1.89597309e-01, 3.40604037e-01, 4.29530203e-01,
          4.02684547e-02, 3.42281878e-01, 6.57718122e-01 ]
      - [ 1.03161395e-01, 0., 0., 5.65723777e-02, 1.04825288e-01,
          6.65557384e-03, 1.03161395e-01, 1.11480862e-01, 1.14808649e-01,
          1.34775370e-01, 8.98502469e-02, 0., 1.38103157e-01,
          3.66056561e-02, 0., 0., 1.59733772e-01, 3.26123118e-01,
          3.39434266e-01, 1.74708813e-01, 4.60898489e-01, 1.78036600e-01,
          1.93011642e-01, 1.68053240e-01, 1.99667215e-01, 4.32612300e-01,
          2.14642256e-01, 2.71214634e-01, 4.24292833e-01, 8.98502469e-02,
          3.34442586e-01, 6.65557384e-01 ]
      - [ 8.85093138e-02, 0., 6.21118024e-03, 1.05590060e-01,
          1.07142858e-01, 1.55279506e-02, 1.33540377e-01, 8.54037255e-02,
          1.31987572e-01, 1.33540377e-01, 5.27950302e-02, 0.,
          1.14906833e-01, 2.48447210e-02, 0., 0., 2.00310558e-01,
          3.41614902e-01, 3.18322986e-01, 1.39751554e-01, 4.42546576e-01,
          1.73913047e-01, 1.92546591e-01, 1.90993786e-01, 1.56832293e-01,
          4.87577647e-01, 2.11180121e-01, 3.30745339e-01, 4.05279517e-01,
          5.27950302e-02, 3.35403740e-01, 6.64596260e-01 ]
      - [ 9.50871632e-02, 0., 0., 1.26782889e-02, 1.01426311e-01,
          3.16957221e-03, 6.65610135e-02, 1.45800322e-01, 1.17274165e-01,
          1.23613313e-01, 1.20443739e-01, 3.48652937e-02, 1.23613313e-01,
          5.38827255e-02, 1.58478611e-03, 0., 1.07765451e-01,
          3.16957206e-01, 3.96196514e-01, 1.79080829e-01, 4.37400937e-01,
          1.80665612e-01, 1.88589543e-01, 1.93343908e-01, 2.18700469e-01,
          3.26465935e-01, 1.99683040e-01, 2.25039631e-01, 4.18383509e-01,
          1.56893820e-01, 3.13787639e-01, 6.86212361e-01 ]
      - [ 1.13418527e-01, 0., 0., 0., 1.13418527e-01, 0., 3.03514376e-02,
          1.10223643e-01, 1.11821085e-01, 9.58466455e-02, 1.40575081e-01,
          5.59105426e-02, 1.59744412e-01, 6.86900988e-02, 0., 0.,
          1.13418527e-01, 2.53993601e-01, 4.04153347e-01, 2.28434503e-01,
          4.98402536e-01, 1.64536744e-01, 1.70926511e-01, 1.66134179e-01,
          2.53993601e-01, 2.85942495e-01, 2.26837054e-01, 1.40575081e-01,
          4.36102241e-01, 1.96485624e-01, 2.66773164e-01, 7.33226836e-01 ]
      - [ 9.64230150e-02, 0., 0., 7.77604990e-03, 9.02021751e-02, 0.,
          5.28771393e-02, 1.27527222e-01, 1.05754279e-01, 1.21306375e-01,
          1.30637631e-01, 3.42146195e-02, 1.30637631e-01, 9.02021751e-02,
          1.24416798e-02, 0., 1.04199067e-01, 2.70606548e-01,
          3.91912907e-01, 2.33281493e-01, 4.23017085e-01, 2.11508542e-01,
          1.95956454e-01, 1.69517890e-01, 2.27060646e-01, 3.12597185e-01,
          1.86625183e-01, 1.88180417e-01, 4.47900474e-01, 1.77293926e-01,
          3.04821134e-01, 6.95178866e-01 ]
      - [ 5.38599640e-02, 0., 1.79533218e-03, 8.25852752e-02,
          1.25673249e-01, 5.38599631e-03, 1.04129262e-01, 1.04129262e-01,
          1.41831234e-01, 1.13105923e-01, 7.54039511e-02, 0.,
          1.50807902e-01, 4.12926376e-02, 0., 0., 1.38240576e-01,
          3.39317769e-01, 3.30341101e-01, 1.92100540e-01, 4.72172350e-01,
          1.59784555e-01, 1.81328550e-01, 1.86714530e-01, 1.34649917e-01,
          4.50628370e-01, 1.84919208e-01, 2.92639136e-01, 4.47037697e-01,
          7.54039511e-02, 2.98025131e-01, 7.01974869e-01 ]
      - [ 8.65224600e-02, 0., 6.65557384e-03, 7.32113123e-02,
          1.18136436e-01, 1.83028281e-02, 1.33111477e-01, 6.65557384e-02,
          1.46422625e-01, 1.31447583e-01, 3.99334431e-02, 0.,
          1.46422625e-01, 3.32778692e-02, 0., 0., 1.66389346e-01,
          3.36106479e-01, 3.17803651e-01, 1.79700494e-01, 4.97504145e-01,
          1.83028281e-01, 1.79700494e-01, 1.39767051e-01, 1.44758731e-01,
          4.84192997e-01, 2.22961724e-01, 2.79534101e-01, 4.57570702e-01,
          3.99334431e-02, 3.22795331e-01, 6.77204609e-01 ]
      - [ 6.30914792e-02, 7.57097825e-02, 5.99369071e-02, 3.47003154e-02,
          5.36277592e-02, 6.46687672e-02, 7.25552067e-02, 8.67507905e-02,
          6.30914792e-02, 7.41324946e-02, 5.36277592e-02, 6.78233430e-02,
          3.78548913e-02, 5.67823350e-02, 7.88643509e-02, 5.67823350e-02,
          2.33438492e-01, 2.77602524e-01, 2.58675069e-01, 2.30283916e-01,
          2.17665613e-01, 2.71293372e-01, 2.64984220e-01, 2.46056780e-01,
          2.38170341e-01, 2.19242901e-01, 2.57097781e-01, 2.53943205e-01,
          2.31861204e-01, 2.57097781e-01, 2.64984220e-01, 7.35015750e-01 ]
      - [ 6.09212480e-02, 1.04011886e-01, 7.28083178e-02, 3.56612168e-02,
          5.49777113e-02, 5.64635955e-02, 5.94353639e-02, 7.42942020e-02,
          7.13224337e-02, 6.83506653e-02, 4.30906378e-02, 6.24071322e-02,
          3.56612168e-02, 5.05200587e-02, 8.32095072e-02, 6.68647811e-02,
          2.73402661e-01, 2.45170876e-01, 2.45170861e-01, 2.36255556e-01,
          2.22882614e-01, 2.79346198e-01, 2.58543819e-01, 2.39227325e-01,
          2.27340266e-01, 1.99108467e-01, 2.76374429e-01, 2.42199093e-01,
          2.25854367e-01, 2.55572051e-01, 2.27340266e-01, 7.72659719e-01 ]
      - [ 6.51085153e-02, 8.51419047e-02, 8.51419047e-02, 5.50918207e-02,
          3.83973271e-02, 6.01001680e-02, 5.34223691e-02, 5.50918207e-02,
          4.34056744e-02, 6.01001680e-02, 5.34223691e-02, 5.50918207e-02,
          6.51085153e-02, 8.51419047e-02, 8.51419047e-02, 5.50918207e-02,
          2.90484130e-01, 2.07011685e-01, 2.12020040e-01, 2.90484130e-01,
          2.12020040e-01, 2.90484130e-01, 2.77128547e-01, 2.20367283e-01,
          2.33722866e-01, 2.33722866e-01, 2.48747915e-01, 2.48747915e-01,
          2.53756255e-01, 2.48747915e-01, 2.27045074e-01, 7.72954941e-01 ]
      - [ 5.82655817e-02, 7.99458027e-02, 7.85907879e-02, 5.55555560e-02,
          5.42005412e-02, 4.60704602e-02, 4.33604345e-02, 5.69105707e-02,
          6.23306222e-02, 5.96205965e-02, 5.96205965e-02, 6.23306222e-02,
          6.50406480e-02, 8.13008100e-02, 8.40108395e-02, 5.28455302e-02,
          2.72357732e-01, 2.00542003e-01, 2.43902445e-01, 2.83197820e-01,
          2.39837393e-01, 2.66937673e-01, 2.65582651e-01, 2.27642283e-01,
          2.16802165e-01, 2.23577231e-01, 2.38482386e-01, 2.34417349e-01,
          2.68292665e-01, 2.58807600e-01, 2.08672091e-01, 7.91327894e-01 ]
      - [ 4.00572233e-02, 6.58082962e-02, 8.72675255e-02, 8.01144466e-02,
          7.43919909e-02, 7.01001436e-02, 4.57796864e-02, 5.00715300e-02,
          6.86695278e-02, 5.72246052e-02, 8.72675255e-02, 8.86981413e-02,
          6.86695278e-02, 7.29613751e-02, 2.86123026e-02, 1.43061513e-02,
          2.73247480e-01, 2.40343347e-01, 3.01859796e-01, 1.84549361e-01,
          2.51788259e-01, 2.66094416e-01, 2.48927042e-01, 2.33190268e-01,
          2.11731046e-01, 2.51788259e-01, 2.50357658e-01, 2.63233185e-01,
          2.67525047e-01, 2.18884125e-01, 2.60371953e-01, 7.39628017e-01 ]
      - [ 5.91054298e-02, 7.82747567e-02, 7.82747567e-02, 6.70926496e-02,
          5.43131009e-02, 4.15335447e-02, 4.15335447e-02, 6.07028753e-02,
          6.07028753e-02, 6.23003207e-02, 5.75079881e-02, 6.86900988e-02,
          5.43131009e-02, 6.70926496e-02, 8.62619802e-02, 6.23003207e-02,
          2.82747597e-01, 1.98083073e-01, 2.49201283e-01, 2.69968063e-01,
          2.28434503e-01, 2.49201268e-01, 2.63578266e-01, 2.58785933e-01,
          2.20447287e-01, 2.25239620e-01, 2.33226836e-01, 2.47603834e-01,
          2.44408950e-01, 2.74760395e-01, 2.02875406e-01, 7.97124624e-01 ]
      - [ 4.25219946e-02, 6.15835786e-02, 5.27859256e-02, 3.22580636e-02,
          5.57184741e-02, 6.30498528e-02, 6.74486831e-02, 7.47800618e-02,
          5.13196476e-02, 5.86510263e-02, 5.27859256e-02, 6.59824014e-02,
          6.15835786e-02, 7.91788846e-02, 9.97067466e-02, 8.06451589e-02,
          1.89149559e-01, 2.60997057e-01, 2.28738993e-01, 3.21114361e-01,
          2.11143702e-01, 2.62463331e-01, 2.72727281e-01, 2.53665686e-01,
          2.39002928e-01, 2.19941348e-01, 2.22873896e-01, 2.27272734e-01,
          2.50733137e-01, 2.99120247e-01, 2.41935492e-01, 7.58064508e-01 ]
      - [ 2.80504916e-02, 6.17110804e-02, 8.13464224e-02, 6.87237009e-02,
          5.32959327e-02, 7.29312748e-02, 6.17110804e-02, 8.69565234e-02,
          3.64656374e-02, 5.32959327e-02, 8.13464224e-02, 8.69565234e-02,
          5.46984561e-02, 7.01262280e-02, 6.17110804e-02, 4.06732112e-02,
          2.39831701e-01, 2.74894804e-01, 2.58064508e-01, 2.27208972e-01,
          1.72510520e-01, 2.58064508e-01, 2.86114991e-01, 2.83309966e-01,
          2.23001406e-01, 2.38429174e-01, 2.15988785e-01, 2.98737735e-01,
          2.14586258e-01, 2.70687222e-01, 2.69284725e-01, 7.30715275e-01 ]
      - [ 6.97329342e-02, 7.41839781e-02, 6.52818978e-02, 3.70919891e-02,
          5.04451022e-02, 5.19287847e-02, 6.23145401e-02, 8.01186934e-02,
          7.71513358e-02, 7.86350146e-02, 5.04451022e-02, 7.27002993e-02,
          2.81899106e-02, 5.34124635e-02, 8.30860510e-02, 6.52818978e-02,
          2.46290803e-01, 2.44807124e-01, 2.78931737e-01, 2.29970321e-01,
          2.25519285e-01, 2.58160233e-01, 2.61127591e-01, 2.55192876e-01,
          2.37388715e-01, 2.06231460e-01, 2.46290803e-01, 2.44807124e-01,
          2.37388730e-01, 2.71513343e-01, 2.43323445e-01, 7.56676555e-01 ]
      - [ 9.03790072e-02, 1.25364438e-01, 1.45772593e-02, 1.45772593e-02,
          8.16326514e-02, 2.04081628e-02, 6.12244904e-02, 6.12244904e-02,
          7.72594735e-02, 4.66472320e-02, 8.30903798e-02, 6.70553967e-02,
          2.91545186e-02, 7.87172019e-02, 8.74635577e-02, 6.12244904e-02,
          2.44897962e-01, 2.24489793e-01, 2.74052471e-01, 2.56559759e-01,
          2.78425664e-01, 2.71137029e-01, 2.46355683e-01, 2.04081640e-01,
          2.55102038e-01, 1.51603505e-01, 3.17784250e-01, 1.51603505e-01,
          2.31778428e-01, 2.98833817e-01, 2.11370260e-01, 7.88629770e-01 ]
      - [ 3.13390307e-02, 9.11680907e-02, 5.69800567e-03, 3.41880359e-02,
          7.83475786e-02, 3.13390307e-02, 5.84045574e-02, 7.69230798e-02,
          5.55555560e-02, 8.54700897e-03, 8.83190855e-02, 8.26210827e-02,
          9.54415947e-02, 1.12535611e-01, 9.97150987e-02, 4.98575494e-02,
          1.62393168e-01, 2.45014250e-01, 2.35042736e-01, 3.57549846e-01,
          2.60683775e-01, 2.43589744e-01, 2.52136737e-01, 2.43589744e-01,
          2.00854689e-01, 1.96581200e-01, 2.32193738e-01, 1.75213680e-01,
          2.72079766e-01, 3.20512831e-01, 1.86609685e-01, 8.13390315e-01 ]
      - [ 5.51523939e-02, 1.01596519e-01, 1.59651674e-02, 3.04789543e-02,
          6.96661845e-02, 3.48330922e-02, 4.93468791e-02, 6.38606697e-02,
          5.80551513e-02, 2.32220609e-02, 8.12772140e-02, 7.83744529e-02,
          6.82148039e-02, 9.72423777e-02, 1.01596519e-01, 7.11175650e-02,
          2.03193039e-01, 2.17706829e-01, 2.40928873e-01, 3.38171273e-01,
          2.51088530e-01, 2.56894052e-01, 2.48185784e-01, 2.43831635e-01,
          2.42380261e-01, 1.71262696e-01, 2.61248201e-01, 1.59651667e-01,
          2.46734396e-01, 3.32365751e-01, 1.88679248e-01, 8.11320782e-01 ]
      - [ 8.78828242e-02, 1.09187752e-01, 9.32090543e-03, 2.26364844e-02,
          5.05992025e-02, 2.66311574e-03, 4.79360856e-02, 2.92942747e-02,
          6.92410097e-02, 3.06258313e-02, 7.32356831e-02, 4.39414121e-02,
          1.05193079e-01, 1.33155793e-01, 1.33155793e-01, 5.19307591e-02,
          2.29027972e-01, 1.30492672e-01, 2.17043936e-01, 4.23435420e-01,
          3.12916100e-01, 2.75632501e-01, 2.63648480e-01, 1.47802934e-01,
          2.15712383e-01, 2.06391484e-01, 2.50332892e-01, 1.09187752e-01,
          3.38215709e-01, 3.02263647e-01, 1.54460713e-01, 8.45539272e-01 ]
      - [ 8.34553465e-02, 1.39092237e-01, 1.75695457e-02, 3.66032198e-02,
          6.00292832e-02, 1.46412887e-02, 4.83162515e-02, 4.68521230e-02,
          9.07759890e-02, 4.97803800e-02, 8.05270895e-02, 8.05270895e-02,
          4.53879945e-02, 7.32064396e-02, 7.32064396e-02, 6.00292832e-02,
          2.76720345e-01, 1.69838950e-01, 3.01610559e-01, 2.51830161e-01,
          2.79648602e-01, 2.76720345e-01, 2.19619334e-01, 2.24011719e-01,
          2.38653004e-01, 1.80087849e-01, 2.97218144e-01, 1.49341136e-01,
          2.59150803e-01, 2.94289887e-01, 1.93265006e-01, 8.06734979e-01 ]
      - [ 3.35999988e-02, 6.40000030e-02, 8.00000038e-03, 6.08000010e-02,
          9.12000015e-02, 5.27999997e-02, 5.27999997e-02, 6.40000030e-02,
          7.03999996e-02, 1.75999999e-02, 1.10399999e-01, 8.79999995e-02,
          9.44000036e-02, 1.13600001e-01, 7.03999996e-02, 8.00000038e-03,
          1.66400000e-01, 2.60800004e-01, 2.86399990e-01, 2.86399990e-01,
          2.89600015e-01, 2.47999996e-01, 2.41599992e-01, 2.20799997e-01,
          2.04799995e-01, 2.25600004e-01, 2.41600007e-01, 1.85599998e-01,
          2.96000004e-01, 2.76800007e-01, 2.33599991e-01, 7.66400039e-01 ]
      - [ 8.67709816e-02, 9.67283100e-02, 9.95732564e-03, 1.42247509e-02,
          6.97012767e-02, 2.56045517e-02, 5.26315793e-02, 6.82788044e-02,
          8.53485093e-02, 2.56045517e-02, 6.25889078e-02, 7.25462288e-02,
          4.83641550e-02, 9.10384059e-02, 1.06685631e-01, 8.39260295e-02,
          2.07681373e-01, 2.16216207e-01, 2.46088192e-01, 3.30014229e-01,
          2.90184915e-01, 2.38975823e-01, 2.31863439e-01, 2.38975808e-01,
          2.58890480e-01, 1.40825033e-01, 2.78805107e-01, 1.45092458e-01,
          2.50355631e-01, 3.25746804e-01, 1.66429594e-01, 8.33570421e-01 ]
      - [ 7.81250000e-02, 1.30208328e-01, 1.69270840e-02, 3.38541679e-02,
          5.46875000e-02, 2.60416674e-03, 5.98958321e-02, 6.38020858e-02,
          6.77083358e-02, 2.86458340e-02, 8.98437500e-02, 7.42187500e-02,
          5.85937500e-02, 9.11458358e-02, 9.11458358e-02, 5.85937500e-02,
          2.59114593e-01, 1.80989578e-01, 2.60416657e-01, 2.99479187e-01,
          2.59114593e-01, 2.52604157e-01, 2.57812500e-01, 2.30468750e-01,
          2.29166672e-01, 1.80989578e-01, 2.65625000e-01, 1.74479172e-01,
          2.46093750e-01, 3.13802093e-01, 1.80989578e-01, 8.19010437e-01 ]
      - [ 2.18978096e-02, 6.71532825e-02, 5.83941583e-03, 3.64963487e-02,
          9.19708014e-02, 5.69343083e-02, 4.67153266e-02, 7.44525567e-02,
          7.00729936e-02, 3.06569338e-02, 1.08029194e-01, 9.05109495e-02,
          1.06569342e-01, 1.10948905e-01, 6.13138676e-02, 2.04379559e-02,
          1.31386861e-01, 2.70072997e-01, 2.99270064e-01, 2.99270064e-01,
          2.90510952e-01, 2.65693426e-01, 2.21897811e-01, 2.21897811e-01,
          2.07299262e-01, 2.20437944e-01, 2.37956196e-01, 1.63503647e-01,
          3.18248183e-01, 2.80291975e-01, 2.42335767e-01, 7.57664204e-01 ]
      - [ 7.58354738e-02, 7.84061700e-02, 2.57069408e-03, 5.14138816e-03,
          8.61182511e-02, 3.47043686e-02, 3.98457572e-02, 4.88431863e-02,
          7.96915144e-02, 2.57069413e-02, 5.65552711e-02, 5.39845750e-02,
          9.12596434e-02, 1.28534704e-01, 1.28534704e-01, 6.42673522e-02,
          1.61953732e-01, 2.09511563e-01, 2.15938300e-01, 4.12596405e-01,
          3.32904875e-01, 2.67352194e-01, 2.27506429e-01, 1.72236502e-01,
          2.31362462e-01, 1.61953732e-01, 2.75064260e-01, 9.64010283e-02,
          3.25192809e-01, 3.03341895e-01, 1.56812340e-01, 8.43187630e-01 ]
      - [ 5.97439557e-02, 5.68990037e-02, 9.10384059e-02, 8.53485093e-02,
          1.26600280e-01, 1.25177816e-01, 4.26742546e-02, 7.82361329e-02,
          1.70697011e-02, 8.25035572e-02, 1.06685631e-01, 7.53911808e-02,
          0., 0., 5.68990037e-03, 4.69416790e-02, 2.93029875e-01,
          3.72688472e-01, 2.81650066e-01, 5.26315793e-02, 2.03413934e-01,
          2.64580369e-01, 2.46088192e-01, 2.85917491e-01, 3.38549078e-01,
          2.10526317e-01, 3.68421048e-01, 2.97297299e-01, 9.95732546e-02,
          2.34708399e-01, 3.57041270e-01, 6.42958760e-01 ]
      - [ 5.78734875e-02, 6.72947541e-02, 8.88290703e-02, 7.13324398e-02,
          1.21130548e-01, 1.15746975e-01, 4.30686399e-02, 6.46029636e-02,
          3.49932723e-02, 8.34454894e-02, 1.10363394e-01, 7.26783276e-02,
          0., 0., 1.88425295e-02, 4.97981161e-02, 2.85329759e-01,
          3.44549119e-01, 3.01480472e-01, 6.86406493e-02, 2.13997304e-01,
          2.66487211e-01, 2.61103630e-01, 2.58411855e-01, 3.33781958e-01,
          1.97846562e-01, 3.62045765e-01, 2.67833114e-01, 1.18438765e-01,
          2.51682371e-01, 3.52624506e-01, 6.47375524e-01 ]
      - [ 0., 0., 1.82648394e-02, 4.56621014e-02, 2.73972601e-02,
          9.58904102e-02, 1.09589040e-01, 5.47945201e-02, 1.17199391e-01,
          1.52207002e-01, 6.08827993e-02, 5.93607314e-02, 5.63165918e-02,
          7.61035010e-02, 7.61035010e-02, 5.02283089e-02, 6.39269426e-02,
          2.87671238e-01, 3.89649928e-01, 2.58751899e-01, 2.00913250e-01,
          3.24200928e-01, 2.64840186e-01, 2.10045666e-01, 2.07001522e-01,
          3.63774747e-01, 1.23287670e-01, 2.28310496e-01, 4.01826501e-01,
          2.46575341e-01, 4.18569267e-01, 5.81430733e-01 ]
      - [ 0., 0., 1.15681235e-02, 4.24164534e-02, 1.54241649e-02,
          7.19794333e-02, 8.99742916e-02, 5.26992306e-02, 1.18251927e-01,
          1.28534704e-01, 4.62724939e-02, 5.01285344e-02, 7.06940889e-02,
          7.71208256e-02, 1.24678664e-01, 1.00257069e-01, 5.39845750e-02,
          2.30077118e-01, 3.43187660e-01, 3.72750640e-01, 2.04370186e-01,
          2.77634978e-01, 2.72493571e-01, 2.45501280e-01, 2.18508989e-01,
          3.31619531e-01, 8.74035954e-02, 1.96658105e-01, 3.94601554e-01,
          3.21336746e-01, 3.36760938e-01, 6.63239062e-01 ]
      - [ 0., 0., 8.07537045e-03, 4.30686399e-02, 0., 6.05652742e-02,
          1.10363394e-01, 5.65275922e-02, 1.02288023e-01, 1.34589508e-01,
          4.30686399e-02, 5.38358018e-02, 1.04979813e-01, 1.29205927e-01,
          8.07536989e-02, 7.26783276e-02, 5.11440113e-02, 2.27456257e-01,
          3.33781958e-01, 3.87617767e-01, 2.07267836e-01, 3.24360698e-01,
          2.42261097e-01, 2.26110369e-01, 1.76312238e-01, 3.93001348e-01,
          6.05652742e-02, 2.18034998e-01, 4.71063256e-01, 2.50336468e-01,
          3.48586828e-01, 6.51413202e-01 ]
      - [ 2.93255132e-02, 4.98533733e-02, 7.91788846e-02, 9.38416421e-02,
          9.09090936e-02, 6.89149573e-02, 5.57184741e-02, 6.59824014e-02,
          3.51906158e-02, 2.05278601e-02, 4.98533733e-02, 6.30498528e-02,
          7.62463361e-02, 9.53079164e-02, 7.91788846e-02, 4.69208211e-02,
          2.52199411e-01, 2.81524926e-01, 1.68621704e-01, 2.97653973e-01,
          2.31671557e-01, 2.34604105e-01, 2.63929605e-01, 2.69794703e-01,
          1.95014670e-01, 2.46334314e-01, 2.39002943e-01, 2.94721395e-01,
          2.27272734e-01, 2.39002928e-01, 1.95014670e-01, 8.04985344e-01 ]
      - [ 4.08163257e-02, 6.41399398e-02, 7.87172019e-02, 7.43440241e-02,
          1.04956269e-01, 6.99708462e-02, 4.37317789e-02, 5.53935878e-02,
          5.97667657e-02, 4.51895036e-02, 6.41399398e-02, 7.43440241e-02,
          6.85131177e-02, 7.72594735e-02, 6.12244904e-02, 1.74927115e-02,
          2.58017480e-01, 2.74052471e-01, 2.43440241e-01, 2.24489793e-01,
          2.74052471e-01, 2.56559759e-01, 2.47813404e-01, 2.21574351e-01,
          1.92419827e-01, 2.31778428e-01, 2.79883385e-01, 2.52186596e-01,
          2.50728846e-01, 2.17201173e-01, 2.23032072e-01, 7.76967943e-01 ]
      - [ 1.42020494e-01, 1.01024888e-01, 7.90629610e-02, 7.46705681e-02,
          9.37042460e-02, 2.04978045e-02, 3.66032198e-02, 5.27086370e-02,
          9.22401175e-02, 2.63543185e-02, 3.80673483e-02, 4.24597375e-02,
          3.66032198e-02, 5.85651547e-02, 6.58857971e-02, 3.95314805e-02,
          3.96778911e-01, 2.03513905e-01, 1.99121520e-01, 2.00585648e-01,
          3.64568084e-01, 2.06442162e-01, 2.19619334e-01, 2.09370419e-01,
          2.40117133e-01, 1.74231321e-01, 3.57247442e-01, 2.43045390e-01,
          2.13762805e-01, 1.85944363e-01, 1.21522695e-01, 8.78477275e-01 ]
      - [ 1.04166664e-01, 7.29166642e-02, 3.86904776e-02, 2.38095243e-02,
          9.22619030e-02, 5.95238097e-02, 5.95238097e-02, 6.99404776e-02,
          8.63095224e-02, 4.16666679e-02, 3.27380970e-02, 3.72023806e-02,
          7.14285746e-02, 7.29166642e-02, 8.63095224e-02, 5.05952388e-02,
          2.39583328e-01, 2.81250000e-01, 1.97916672e-01, 2.81250000e-01,
          3.54166657e-01, 2.47023806e-01, 2.17261910e-01, 1.81547627e-01,
          2.47023806e-01, 1.96428582e-01, 3.28869045e-01, 1.91964284e-01,
          2.72321433e-01, 2.06845239e-01, 1.93452388e-01, 8.06547642e-01 ]
      - [ 9.45945978e-02, 9.45945978e-02, 9.45945978e-02, 5.54054044e-02,
          7.70270303e-02, 5.27027026e-02, 3.51351351e-02, 3.10810804e-02,
          6.35135099e-02, 3.64864878e-02, 2.97297295e-02, 3.37837823e-02,
          8.64864886e-02, 9.05405432e-02, 7.83783793e-02, 4.59459461e-02,
          3.39189202e-01, 1.95945948e-01, 1.63513511e-01, 3.01351368e-01,
          3.21621627e-01, 2.74324328e-01, 2.37837836e-01, 1.66216210e-01,
          2.22972974e-01, 2.13513523e-01, 3.18918943e-01, 2.16216221e-01,
          2.77027041e-01, 1.87837839e-01, 1.54054061e-01, 8.45945954e-01 ]
      - [ 2.37037037e-02, 5.62962964e-02, 8.14814791e-02, 1.06666669e-01,
          1.02222219e-01, 6.96296319e-02, 4.59259264e-02, 6.22222237e-02,
          6.51851818e-02, 4.44444455e-02, 6.66666701e-02, 7.55555555e-02,
          6.07407391e-02, 7.40740746e-02, 4.74074073e-02, 1.77777782e-02,
          2.68148154e-01, 2.80000001e-01, 2.51851857e-01, 2.00000003e-01,
          2.51851857e-01, 2.44444445e-01, 2.41481483e-01, 2.62222230e-01,
          1.77777782e-01, 2.57777780e-01, 2.51851857e-01, 2.96296299e-01,
          2.44444445e-01, 2.07407415e-01, 2.26666674e-01, 7.73333311e-01 ]
      - [ 1.49253726e-01, 1.13432840e-01, 5.97014911e-02, 2.68656723e-02,
          1.17910445e-01, 4.47761193e-02, 7.46268630e-02, 1.00000001e-01,
          1.20895520e-01, 0., 0., 7.31343254e-02, 5.37313446e-02, 0., 0.,
          6.56716451e-02, 3.49253714e-01, 3.37313414e-01, 1.94029838e-01,
          1.19402990e-01, 4.41791028e-01, 1.58208966e-01, 1.34328350e-01,
          2.65671641e-01, 2.59701490e-01, 1.55223876e-01, 4.25373137e-01,
          2.61194021e-01, 1.74626857e-01, 1.38805971e-01, 1.19402982e-01,
          8.80596995e-01 ]
      - [ 8.35962147e-02, 1.45110413e-01, 9.46372226e-02, 6.15141951e-02,
          1.04100950e-01, 6.30914792e-02, 4.41640392e-02, 1.02523662e-01,
          7.88643509e-02, 0., 0., 8.35962147e-02, 7.25552067e-02, 0., 0.,
          6.62460551e-02, 3.84858042e-01, 3.13880146e-01, 1.62460566e-01,
          1.38801262e-01, 3.39116722e-01, 2.08201885e-01, 1.38801262e-01,
          3.13880116e-01, 2.12933749e-01, 1.78233445e-01, 3.95899057e-01,
          3.02839130e-01, 1.51419550e-01, 1.49842262e-01, 1.07255518e-01,
          8.92744482e-01 ]
      - [ 1.24118477e-01, 1.41043723e-01, 1.41043723e-01, 9.73201692e-02,
          1.10014103e-01, 0., 0., 7.47531727e-02, 1.05782792e-01, 0., 0.,
          7.89844841e-02, 1.10014103e-01, 0., 0., 1.69252474e-02,
          5.03526092e-01, 1.84767276e-01, 1.84767276e-01, 1.26939356e-01,
          4.49929476e-01, 1.41043723e-01, 1.41043723e-01, 2.67983079e-01,
          1.41043723e-01, 2.07334280e-01, 3.75176311e-01, 3.13117057e-01,
          2.15796888e-01, 9.59097296e-02, 0., 1. ]
      - [ 5.08166961e-02, 1.08892925e-01, 1.81488201e-01, 1.54264972e-01,
          1.08892925e-01, 1.81488208e-02, 1.81488208e-02, 8.89292210e-02,
          7.98548087e-02, 0., 0., 1.12522684e-01, 5.44464625e-02, 0., 0.,
          2.35934667e-02, 4.95462805e-01, 2.34119788e-01, 1.92377493e-01,
          7.80399293e-02, 2.94010878e-01, 1.27041742e-01, 1.99637026e-01,
          3.79310340e-01, 9.25589800e-02, 2.26860255e-01, 2.86751360e-01,
          4.42831218e-01, 1.34301275e-01, 1.36116147e-01, 3.62976417e-02,
          9.63702381e-01 ]
      - [ 8.42266455e-02, 9.49463993e-02, 1.01071976e-01, 6.43185303e-02,
          3.67534459e-02, 3.06278723e-03, 3.06278709e-02, 1.17917307e-01,
          5.81929572e-02, 2.45022979e-02, 1.37825422e-02, 6.89127073e-02,
          1.37825422e-02, 7.04441071e-02, 1.28637061e-01, 8.88208300e-02,
          3.44563544e-01, 1.88361406e-01, 1.65390506e-01, 3.01684529e-01,
          1.92955583e-01, 1.92955598e-01, 2.74119437e-01, 3.39969367e-01,
          1.89892799e-01, 1.33231238e-01, 2.18989283e-01, 3.13935697e-01,
          1.66921899e-01, 3.00153136e-01, 7.19754994e-02, 9.28024530e-01 ]
      - [ 8.42266455e-02, 9.49463993e-02, 1.01071976e-01, 6.43185303e-02,
          3.67534459e-02, 3.06278723e-03, 3.06278709e-02, 1.17917307e-01,
          5.81929572e-02, 2.45022979e-02, 1.37825422e-02, 6.89127073e-02,
          1.37825422e-02, 7.04441071e-02, 1.28637061e-01, 8.88208300e-02,
          3.44563544e-01, 1.88361406e-01, 1.65390506e-01, 3.01684529e-01,
          1.92955583e-01, 1.92955598e-01, 2.74119437e-01, 3.39969367e-01,
          1.89892799e-01, 1.33231238e-01, 2.18989283e-01, 3.13935697e-01,
          1.66921899e-01, 3.00153136e-01, 7.19754994e-02, 9.28024530e-01 ]
      - [ 9.13242027e-02, 9.13242027e-02, 9.13242027e-02, 7.91476443e-02,
          8.37138519e-02, 0., 0., 5.02283089e-02, 8.37138519e-02,
          4.56621014e-02, 4.56621014e-02, 6.39269426e-02, 5.47945201e-02,
          9.13242027e-02, 9.13242027e-02, 3.65296789e-02, 3.53120267e-01,
          1.33942157e-01, 2.38965005e-01, 2.73972601e-01, 3.13546419e-01,
          2.28310511e-01, 2.28310511e-01, 2.29832575e-01, 1.73515975e-01,
          1.79604262e-01, 2.66362250e-01, 2.20700160e-01, 2.75494665e-01,
          2.37442926e-01, 9.13242027e-02, 9.08675790e-01 ]
      - [ 6.11961074e-02, 7.23226741e-02, 9.04033408e-02, 1.08484007e-01,
          1.05702363e-01, 2.78164111e-02, 5.56328241e-03, 5.00695407e-02,
          8.62308741e-02, 5.56328241e-03, 2.78164111e-02, 6.95410296e-02,
          8.20584148e-02, 9.45758000e-02, 7.51043111e-02, 3.75521556e-02,
          3.32406133e-01, 1.89151600e-01, 1.89151600e-01, 2.89290667e-01,
          3.35187763e-01, 2.00278163e-01, 1.98887348e-01, 2.65646726e-01,
          1.54381081e-01, 2.01668993e-01, 2.67037570e-01, 2.54520178e-01,
          2.68428385e-01, 2.10013911e-01, 6.67593852e-02, 9.33240592e-01 ]
      - [ 6.11961074e-02, 7.23226741e-02, 9.04033408e-02, 1.08484007e-01,
          1.05702363e-01, 2.78164111e-02, 5.56328241e-03, 5.00695407e-02,
          8.62308741e-02, 5.56328241e-03, 2.78164111e-02, 6.95410296e-02,
          8.20584148e-02, 9.45758000e-02, 7.51043111e-02, 3.75521556e-02,
          3.32406133e-01, 1.89151600e-01, 1.89151600e-01, 2.89290667e-01,
          3.35187763e-01, 2.00278163e-01, 1.98887348e-01, 2.65646726e-01,
          1.54381081e-01, 2.01668993e-01, 2.67037570e-01, 2.54520178e-01,
          2.68428385e-01, 2.10013911e-01, 6.67593852e-02, 9.33240592e-01 ]
      - [ 1.31498471e-01, 9.48012248e-02, 7.64525980e-02, 7.95107037e-02,
          8.10397565e-02, 0., 0., 7.03363940e-02, 7.79816508e-02,
          1.52905202e-02, 1.52905202e-02, 7.03363940e-02, 5.04587144e-02,
          9.17431191e-02, 9.17431191e-02, 5.35168201e-02, 3.82263005e-01,
          1.51376158e-01, 1.78899080e-01, 2.87461758e-01, 3.40978593e-01,
          2.01834857e-01, 1.83486238e-01, 2.73700297e-01, 2.00305805e-01,
          1.45259932e-01, 3.07339460e-01, 2.26299703e-01, 2.35474005e-01,
          2.30886847e-01, 3.05810403e-02, 9.69418943e-01 ]
      - [ 7.32484087e-02, 8.91719759e-02, 1.11464970e-01, 1.22611463e-01,
          1.14649683e-01, 9.87261161e-02, 4.14012745e-02, 7.32484087e-02,
          6.36942685e-02, 4.77707013e-02, 1.59235671e-02, 6.05095550e-02,
          7.00636953e-02, 1.11464970e-02, 1.59235671e-03, 4.77707013e-03,
          3.96496832e-01, 3.28025490e-01, 1.87898099e-01, 8.75796229e-02,
          3.21656048e-01, 2.46815294e-01, 1.70382172e-01, 2.61146486e-01,
          1.92675158e-01, 2.81847119e-01, 3.75796199e-01, 3.48726124e-01,
          1.92675158e-01, 8.28025490e-02, 2.03821659e-01, 7.96178341e-01 ]
      - [ 8.92143771e-02, 1.01198405e-01, 1.33155793e-01, 1.29161119e-01,
          8.25565904e-02, 6.79094568e-02, 3.99467386e-02, 8.25565904e-02,
          6.65778965e-02, 3.99467386e-02, 1.33155789e-02, 6.65778965e-02,
          4.26098518e-02, 1.06524630e-02, 2.66311574e-03, 3.19573916e-02,
          4.52729702e-01, 2.72969365e-01, 1.86418116e-01, 8.78828242e-02,
          2.80958712e-01, 2.19707057e-01, 1.89081222e-01, 3.10252994e-01,
          2.02396810e-01, 2.51664460e-01, 3.40878844e-01, 3.84820253e-01,
          1.59786955e-01, 1.14513986e-01, 1.61118507e-01, 8.38881493e-01 ]
      - [ 1.00149475e-01, 1.04633778e-01, 1.44992530e-01, 1.25560537e-01,
          8.96860957e-02, 6.72645718e-02, 3.13901342e-02, 7.32436478e-02,
          7.47384131e-02, 4.48430479e-02, 1.49476836e-02, 5.97907342e-02,
          4.03587446e-02, 5.97907323e-03, 0., 2.24215239e-02,
          4.75336313e-01, 2.61584461e-01, 1.94319874e-01, 6.87593445e-02,
          3.04932714e-01, 2.22720474e-01, 1.91330343e-01, 2.81016439e-01,
          2.04783261e-01, 2.42152467e-01, 3.61733913e-01, 3.75186861e-01,
          1.65919274e-01, 9.71599445e-02, 1.58445433e-01, 8.41554582e-01 ]
      - [ 1.57480314e-01, 9.44881886e-02, 6.92913383e-02, 4.72440943e-02,
          1.30708665e-01, 8.97637829e-02, 8.97637829e-02, 5.98425195e-02,
          9.44881886e-02, 3.14960629e-02, 2.67716534e-02, 0.,
          8.97637829e-02, 1.25984251e-02, 6.29921257e-03, 0.,
          3.68503928e-01, 3.70078743e-01, 1.52755901e-01, 1.08661421e-01,
          4.72440958e-01, 2.28346467e-01, 1.92125991e-01, 1.07086614e-01,
          2.74015754e-01, 2.58267730e-01, 4.72440958e-01, 2.66141742e-01,
          2.28346467e-01, 3.30708660e-02, 2.37795278e-01, 7.62204707e-01 ]
      - [ 1.39461175e-01, 1.10935025e-01, 1.10935025e-01, 9.82567370e-02,
          1.47385105e-01, 9.82567370e-02, 5.70522994e-02, 3.16957221e-03,
          1.10935025e-01, 6.33914443e-03, 1.10935019e-02, 0.,
          1.06180668e-01, 0., 0., 0., 4.59587961e-01, 3.05863708e-01,
          1.28367677e-01, 1.06180668e-01, 5.03961980e-01, 2.15530902e-01,
          1.79080829e-01, 1.01426311e-01, 2.48811409e-01, 2.67828852e-01,
          4.96038049e-01, 2.69413620e-01, 2.23454833e-01, 1.10935019e-02,
          1.72741681e-01, 8.27258348e-01 ]
      - [ 1.30158737e-01, 1.11111112e-01, 1.11111112e-01, 9.52380970e-02,
          9.52380970e-02, 7.30158761e-02, 7.77777806e-02, 6.03174604e-02,
          7.61904791e-02, 4.76190485e-02, 3.17460336e-02, 0.,
          3.49206366e-02, 3.33333351e-02, 2.22222228e-02, 0.,
          4.47619051e-01, 3.06349218e-01, 1.55555561e-01, 9.04761925e-02,
          3.36507946e-01, 2.65079379e-01, 2.42857143e-01, 1.55555561e-01,
          2.34920651e-01, 2.55555570e-01, 4.09523815e-01, 3.44444454e-01,
          1.92063496e-01, 5.39682582e-02, 2.30158746e-01, 7.69841313e-01 ]
      - [ 1.32047474e-01, 1.03857569e-01, 7.41839781e-02, 5.34124635e-02,
          1.06824927e-01, 1.00890204e-01, 9.79228467e-02, 7.71513358e-02,
          7.41839781e-02, 5.93471825e-02, 1.48367956e-02, 0.,
          6.52818978e-02, 3.85756679e-02, 1.48367952e-03, 0.,
          3.63501489e-01, 3.82789314e-01, 1.48367956e-01, 1.05341248e-01,
          3.78338277e-01, 3.02670628e-01, 1.88427299e-01, 1.30563796e-01,
          2.47774482e-01, 2.75964379e-01, 4.43620175e-01, 3.02670628e-01,
          2.37388730e-01, 1.63204744e-02, 2.72997022e-01, 7.27002978e-01 ]
      - [ 4.56431545e-02, 7.19225481e-02, 1.27247587e-01, 7.46887997e-02,
          8.99031833e-02, 4.70262803e-02, 2.21300144e-02, 7.88381770e-02,
          5.67081608e-02, 0., 4.70262803e-02, 8.99031833e-02,
          8.02213028e-02, 0., 8.99031833e-02, 7.88381770e-02,
          3.19502085e-01, 2.37897649e-01, 1.93637624e-01, 2.48962671e-01,
          2.72475809e-01, 1.18948832e-01, 2.86307067e-01, 3.22268337e-01,
          2.18533888e-01, 1.77040115e-01, 2.54495174e-01, 3.02904576e-01,
          1.36929467e-01, 3.05670828e-01, 1.16182573e-01, 8.83817434e-01 ]
      - [ 6.22009560e-02, 9.40988809e-02, 1.43540666e-01, 9.25039873e-02,
          9.72886756e-02, 1.43540669e-02, 0., 8.13397095e-02,
          8.77192989e-02, 0., 1.00478470e-01, 8.93141925e-02,
          6.22009560e-02, 0., 5.26315793e-02, 2.23285481e-02,
          3.92344475e-01, 1.92982450e-01, 2.77511954e-01, 1.37161076e-01,
          3.09409887e-01, 1.08452946e-01, 2.96650708e-01, 2.85486430e-01,
          1.99362040e-01, 1.54704943e-01, 2.67942578e-01, 3.17384362e-01,
          1.49920255e-01, 2.64752805e-01, 1.14832535e-01, 8.85167480e-01 ]
      - [ 6.29370660e-02, 1.17482521e-01, 1.39860138e-01, 8.81118849e-02,
          7.55244792e-02, 1.39860138e-02, 1.39860138e-02, 8.67132843e-02,
          7.69230798e-02, 0., 4.19580415e-02, 8.39160830e-02,
          6.71328679e-02, 0., 6.85314685e-02, 6.29370660e-02,
          4.08391595e-01, 1.90209791e-01, 2.02797204e-01, 1.98601395e-01,
          2.82517493e-01, 1.31468534e-01, 2.64335662e-01, 3.21678311e-01,
          1.81818187e-01, 1.69230759e-01, 2.69930065e-01, 3.28671336e-01,
          1.44055948e-01, 2.57342666e-01, 6.99300691e-02, 9.30069923e-01 ]
      - [ 2.03389823e-02, 5.08474559e-02, 1.01694912e-01, 1.00000001e-01,
          1.18644066e-01, 3.72881368e-02, 1.69491526e-02, 1.06779657e-01,
          9.15254205e-02, 0., 8.30508471e-02, 1.05084747e-01,
          9.66101661e-02, 0., 5.08474559e-02, 2.03389823e-02,
          2.72881359e-01, 2.79661000e-01, 2.79661000e-01, 1.67796612e-01,
          3.27118635e-01, 8.81355926e-02, 2.52542377e-01, 3.32203388e-01,
          1.61016941e-01, 2.13559315e-01, 2.27118641e-01, 3.25423717e-01,
          1.88135594e-01, 2.59322047e-01, 1.37288138e-01, 8.62711847e-01 ]
      - [ 1.48606807e-01, 9.90712047e-02, 9.28792581e-02, 7.12074339e-02,
          1.54798757e-02, 6.03715181e-02, 3.25077400e-02, 1.23839006e-02,
          6.19195029e-02, 8.51393193e-02, 6.03715181e-02, 2.78637763e-02,
          5.88235296e-02, 6.19195029e-02, 6.19195029e-02, 4.95356023e-02,
          4.11764711e-01, 1.20743036e-01, 2.35294119e-01, 2.32198134e-01,
          2.84829706e-01, 3.06501538e-01, 2.47678012e-01, 1.60990715e-01,
          3.18885446e-01, 2.47678027e-01, 3.23529392e-01, 2.08978325e-01,
          2.67801851e-01, 1.99690402e-01, 2.38390088e-01, 7.61609912e-01 ]
      - [ 8.08909759e-02, 1.13716297e-01, 7.62016401e-02, 7.73739740e-02,
          1.87573265e-02, 5.15826494e-02, 3.28253210e-02, 0.,
          1.87573265e-02, 4.22039852e-02, 4.45486531e-02, 1.87573265e-02,
          1.00820631e-01, 1.16060965e-01, 1.17233291e-01, 9.02696401e-02,
          3.48182887e-01, 1.03165299e-01, 1.24267295e-01, 4.24384534e-01,
          2.19226256e-01, 3.23563904e-01, 2.70808905e-01, 1.86400935e-01,
          2.67291903e-01, 2.53223896e-01, 2.64947236e-01, 1.86400935e-01,
          2.77842909e-01, 2.70808905e-01, 1.71160609e-01, 8.28839421e-01 ]
      - [ 6.08827993e-02, 7.61035010e-02, 7.61035010e-02, 5.02283089e-02,
          1.21765602e-02, 6.54490143e-02, 4.26179618e-02, 9.13241971e-03,
          1.06544904e-02, 5.63165918e-02, 3.34855393e-02, 1.06544904e-02,
          1.18721463e-01, 1.52207002e-01, 1.21765599e-01, 1.03500761e-01,
          2.63318121e-01, 1.29375950e-01, 1.11111112e-01, 4.96194839e-01,
          2.02435315e-01, 3.50076109e-01, 2.73972601e-01, 1.73515975e-01,
          2.63318121e-01, 2.67884314e-01, 2.14611873e-01, 1.78082198e-01,
          3.37899536e-01, 2.69406378e-01, 1.97869107e-01, 8.02130878e-01 ]
      - [ 1.37551576e-01, 1.05914719e-01, 9.62861106e-02, 6.46492466e-02,
          2.75103170e-02, 4.40165065e-02, 4.67675366e-02, 1.65061895e-02,
          7.42778555e-02, 7.42778555e-02, 4.12654728e-02, 1.65061895e-02,
          6.60247579e-02, 6.87757879e-02, 6.87757879e-02, 5.08940853e-02,
          4.04401660e-01, 1.34800553e-01, 2.06327379e-01, 2.54470408e-01,
          3.05364519e-01, 2.92984873e-01, 2.53094912e-01, 1.48555711e-01,
          2.73727655e-01, 2.51719385e-01, 3.14993113e-01, 2.24209085e-01,
          2.83356249e-01, 1.77441537e-01, 2.06327379e-01, 7.93672621e-01 ]
      - [ 4.95356023e-02, 9.44272429e-02, 1.08359136e-01, 1.11455105e-01,
          6.19195029e-02, 1.47058830e-01, 1.51702791e-01, 4.64396272e-03,
          7.43034035e-02, 2.16718260e-02, 4.79876176e-02, 7.89473653e-02,
          2.63157897e-02, 0., 0., 2.16718260e-02, 3.63777101e-01,
          3.65325093e-01, 2.22910210e-01, 4.79876176e-02, 2.12074295e-01,
          2.63157904e-01, 3.08049560e-01, 2.16718256e-01, 2.66253889e-01,
          3.11145514e-01, 3.52941185e-01, 3.76161009e-01, 1.22291021e-01,
          1.48606807e-01, 3.68421078e-01, 6.31578922e-01 ]
      - [ 4.71976399e-02, 7.37463161e-02, 7.37463161e-02, 6.34218305e-02,
          8.40707943e-02, 1.47492632e-01, 1.47492632e-01, 5.01474924e-02,
          7.07964599e-02, 3.83480825e-02, 7.81710893e-02, 5.75221255e-02,
          2.50737462e-02, 0., 0., 4.27728631e-02, 2.58112103e-01,
          4.29203540e-01, 2.44837761e-01, 6.78466111e-02, 2.27138638e-01,
          2.59587020e-01, 2.99410045e-01, 2.13864312e-01, 3.15634221e-01,
          2.74336278e-01, 3.52507383e-01, 3.34808260e-01, 1.34218290e-01,
          1.78466082e-01, 4.11504447e-01, 5.88495612e-01 ]
      - [ 3.41394022e-02, 4.26742546e-02, 7.68136531e-02, 6.82788044e-02,
          1.33712664e-01, 1.42247513e-01, 1.42247513e-01, 3.55618782e-02,
          8.10810775e-02, 4.26742546e-02, 3.98293026e-02, 7.82361329e-02,
          8.25035572e-02, 0., 0., 0., 2.21906111e-01, 4.53769565e-01,
          2.41820768e-01, 8.25035572e-02, 3.31436694e-01, 2.27596015e-01,
          2.58890480e-01, 1.82076812e-01, 2.16216221e-01, 3.35704118e-01,
          3.52773845e-01, 3.22901845e-01, 2.06258893e-01, 1.18065432e-01,
          3.66998583e-01, 6.33001447e-01 ]
      - [ 1.18942730e-01, 8.81057233e-02, 7.92951509e-02, 4.69897203e-02,
          1.17474301e-02, 1.24816447e-01, 1.29221737e-01, 2.05580033e-02,
          6.46108687e-02, 9.10425857e-02, 9.10425857e-02, 2.93685757e-02,
          4.99265790e-02, 1.46842876e-03, 1.46842876e-03, 5.13950065e-02,
          3.33333313e-01, 2.86343604e-01, 2.76064605e-01, 1.04258440e-01,
          2.45227605e-01, 3.05433184e-01, 3.01027894e-01, 1.48311302e-01,
          3.86196762e-01, 3.17180634e-01, 3.43612343e-01, 2.76064605e-01,
          2.07048461e-01, 1.73274592e-01, 4.36123371e-01, 5.63876629e-01 ]
      - [ 1.08695649e-01, 1.26811594e-01, 1.26811594e-01, 1.23188406e-01,
          5.07246368e-02, 7.24637657e-02, 7.24637657e-02, 1.44927531e-01,
          0., 0., 0., 9.42028984e-02, 0., 0., 0., 7.97101483e-02,
          4.85507250e-01, 3.40579689e-01, 9.42028984e-02, 7.97101483e-02,
          1.59420282e-01, 1.99275360e-01, 1.99275360e-01, 4.42028999e-01,
          2.60869563e-01, 1.95652172e-01, 3.58695656e-01, 4.67391312e-01,
          0., 1.73913047e-01, 1.44927531e-01, 8.55072439e-01 ]
      - [ 1.45424843e-01, 1.63398698e-01, 1.63398698e-01, 1.56862751e-01,
          1.30718956e-02, 4.08496745e-02, 6.53594807e-02, 1.07843138e-01,
          0., 0., 0., 7.51634017e-02, 0., 0., 0., 6.86274543e-02,
          6.29085004e-01, 2.27124184e-01, 7.51634017e-02, 6.86274543e-02,
          1.58496737e-01, 2.04248369e-01, 2.28758186e-01, 4.08496737e-01,
          2.54901975e-01, 2.22222239e-01, 3.62745106e-01, 4.93464053e-01,
          0., 1.43790856e-01, 1.06209159e-01, 8.93790901e-01 ]
      - [ 1.34831458e-01, 1.12359554e-01, 1.12359554e-01, 1.04868911e-01,
          4.68164794e-02, 5.61797768e-02, 8.98876414e-02, 1.55430704e-01,
          0., 0., 0., 9.36329588e-02, 0., 0., 0., 9.36329588e-02,
          4.64419484e-01, 3.48314613e-01, 9.36329588e-02, 9.36329588e-02,
          1.81647941e-01, 1.68539330e-01, 2.02247202e-01, 4.47565526e-01,
          2.84644186e-01, 1.94756553e-01, 3.50187272e-01, 4.62546825e-01,
          0., 1.87265918e-01, 1.46067411e-01, 8.53932559e-01 ]
      - [ 5.26315793e-02, 9.77443606e-02, 1.22180454e-01, 1.42857149e-01,
          1.71052635e-01, 1.10902257e-01, 7.51879662e-02, 1.14661656e-01,
          0., 0., 0., 7.51879662e-02, 0., 0., 0., 3.75939831e-02,
          4.15413558e-01, 4.71804500e-01, 7.51879662e-02, 3.75939831e-02,
          2.23684222e-01, 2.08646625e-01, 1.97368413e-01, 3.70300770e-01,
          2.01127827e-01, 2.18045115e-01, 4.32330847e-01, 4.54887211e-01,
          0., 1.12781949e-01, 1.86090231e-01, 8.13909769e-01 ]
      - [ 5.20833321e-02, 6.51041642e-02, 7.55208358e-02, 4.16666679e-02,
          6.51041642e-02, 1.28906250e-01, 8.46354142e-02, 0.,
          2.86458340e-02, 1.22395836e-01, 1.09375000e-01, 2.86458340e-02,
          6.25000000e-02, 6.51041642e-02, 5.20833321e-02, 1.82291660e-02,
          2.34375000e-01, 2.78645813e-01, 2.89062500e-01, 1.97916657e-01,
          2.08333328e-01, 3.81510407e-01, 3.21614593e-01, 8.85416716e-02,
          3.08593750e-01, 3.11197907e-01, 3.11197907e-01, 2.01822922e-01,
          2.78645843e-01, 2.08333328e-01, 4.45312500e-01, 5.54687500e-01 ]
      - [ 3.48189399e-02, 4.17827293e-02, 6.82451278e-02, 3.89972143e-02,
          8.21726993e-02, 1.39275759e-01, 1.00278549e-01, 0.,
          2.22841222e-02, 1.39275759e-01, 1.04456827e-01, 5.57103055e-03,
          7.79944286e-02, 7.24233985e-02, 6.12813383e-02, 1.11420611e-02,
          1.83844015e-01, 3.21727008e-01, 2.71587729e-01, 2.22841233e-01,
          2.17270195e-01, 3.92757654e-01, 3.34261835e-01, 5.57103045e-02,
          2.89693594e-01, 3.56545955e-01, 2.98050135e-01, 2.07520887e-01,
          3.11977714e-01, 1.82451263e-01, 4.83286887e-01, 5.16713083e-01 ]
      - [ 7.18157217e-02, 5.42005412e-02, 5.42005412e-02, 2.71002706e-02,
          7.45257437e-02, 1.35501355e-01, 9.75609720e-02, 0.,
          6.09756112e-02, 1.35501355e-01, 9.34959352e-02, 0.,
          4.87804860e-02, 5.42005412e-02, 5.42005412e-02, 3.79403792e-02,
          2.07317069e-01, 3.07588071e-01, 2.89972901e-01, 1.95121944e-01,
          2.56097555e-01, 3.79403800e-01, 2.99457997e-01, 6.50406480e-02,
          3.38753402e-01, 3.08943093e-01, 3.36043358e-01, 1.78861782e-01,
          2.99457997e-01, 1.85636848e-01, 4.62059617e-01, 5.37940383e-01 ]
      - [ 3.38504948e-02, 4.23131175e-02, 4.23131175e-02, 2.96191815e-02,
          5.64174876e-02, 1.41043723e-01, 1.05782792e-01, 0.,
          3.10296193e-02, 1.41043723e-01, 9.30888578e-02, 0.,
          6.34696782e-02, 8.46262351e-02, 8.46262351e-02, 5.07757403e-02,
          1.48095906e-01, 3.03243995e-01, 2.65162200e-01, 2.83497900e-01,
          1.84767276e-01, 4.09026802e-01, 3.25810999e-01, 8.03949237e-02,
          3.18758816e-01, 3.39915365e-01, 2.73624837e-01, 1.77715093e-01,
          3.20169270e-01, 2.28490829e-01, 4.80959088e-01, 5.19040883e-01 ]
      - [ 1.84940547e-02, 2.64200792e-02, 4.22721282e-02, 3.43461037e-02,
          1.13606341e-01, 1.30779386e-01, 8.45442563e-02, 0., 0.,
          9.77542922e-02, 1.21532366e-01, 5.94451800e-02, 9.11492705e-02,
          9.24702808e-02, 6.86922073e-02, 1.84940547e-02, 1.21532366e-01,
          3.28929991e-01, 2.78731823e-01, 2.70805806e-01, 2.23249674e-01,
          3.47424030e-01, 3.17040950e-01, 1.12285338e-01, 2.89299846e-01,
          3.07793915e-01, 2.89299846e-01, 1.61162496e-01, 2.81373858e-01,
          2.68163800e-01, 4.34610307e-01, 5.65389693e-01 ]
      - [ 2.88461540e-02, 5.49450554e-02, 7.14285746e-02, 6.59340695e-02,
          7.41758272e-02, 1.34615391e-01, 7.14285746e-02, 0., 0.,
          8.51648375e-02, 1.31868139e-01, 6.59340695e-02, 6.04395606e-02,
          7.28022009e-02, 5.21978028e-02, 3.02197803e-02, 2.21153855e-01,
          2.80219793e-01, 2.82967031e-01, 2.15659350e-01, 1.63461536e-01,
          3.47527474e-01, 3.26923102e-01, 1.62087917e-01, 3.25549453e-01,
          2.82967031e-01, 2.92582422e-01, 2.08791226e-01, 2.18406603e-01,
          2.80219793e-01, 4.23076928e-01, 5.76923072e-01 ]
      - [ 3.84615399e-02, 4.43786979e-02, 6.95266277e-02, 4.14201170e-02,
          8.87573957e-02, 1.39053255e-01, 8.13609436e-02, 0., 0.,
          8.43195245e-02, 1.34615391e-01, 5.47337271e-02, 6.21301793e-02,
          8.43195245e-02, 6.21301793e-02, 1.47928996e-02, 1.93786979e-01,
          3.09171587e-01, 2.73668647e-01, 2.23372787e-01, 1.89349115e-01,
          3.52070987e-01, 3.47633153e-01, 1.10946745e-01, 3.26923072e-01,
          2.69230753e-01, 3.10650885e-01, 1.92307681e-01, 2.30769232e-01,
          2.66272187e-01, 4.39349115e-01, 5.60650885e-01 ]
      - [ 1.26878127e-01, 1.00166947e-01, 1.00166947e-01, 9.01502520e-02,
          8.18030015e-02, 3.17195319e-02, 6.67779669e-02, 5.00834733e-02,
          9.18196961e-02, 3.67278792e-02, 3.33889835e-02, 0.,
          6.84474111e-02, 1.20200336e-01, 1.66944903e-03, 0.,
          4.17362273e-01, 2.30383977e-01, 1.61936551e-01, 1.90317199e-01,
          3.68948221e-01, 2.88814694e-01, 2.02003345e-01, 1.40233725e-01,
          1.91986650e-01, 2.62103498e-01, 3.40567619e-01, 3.07178646e-01,
          3.17195326e-01, 3.50584313e-02, 1.68614358e-01, 8.31385612e-01 ]
      - [ 4.46043164e-02, 5.75539581e-02, 8.05755407e-02, 6.33093491e-02,
          1.35251805e-01, 9.64028761e-02, 7.05035999e-02, 1.00719426e-02,
          1.09352522e-01, 3.45323756e-02, 4.74820137e-02, 0.,
          1.15107916e-01, 1.23741008e-01, 1.15107913e-02, 0.,
          2.46043161e-01, 3.12230229e-01, 1.91366911e-01, 2.50359714e-01,
          4.04316545e-01, 3.12230229e-01, 2.10071951e-01, 7.33812898e-02,
          1.88489199e-01, 2.83453226e-01, 3.33812952e-01, 2.24460438e-01,
          3.82733822e-01, 5.89928031e-02, 2.48920858e-01, 7.51079142e-01 ]
      - [ 4.55192029e-02, 7.11237565e-02, 8.25035572e-02, 8.25035572e-02,
          1.16642959e-01, 9.10384059e-02, 9.38833579e-02, 2.84495018e-02,
          7.39687085e-02, 2.56045517e-02, 3.98293026e-02, 0.,
          1.08108111e-01, 1.29445240e-01, 1.13798007e-02, 0.,
          2.81650066e-01, 3.30014229e-01, 1.39402568e-01, 2.48933151e-01,
          3.44238997e-01, 3.17211956e-01, 2.27596015e-01, 1.10953063e-01,
          1.76386908e-01, 3.10099572e-01, 3.24324310e-01, 2.87339985e-01,
          3.37126613e-01, 5.12091033e-02, 2.50355631e-01, 7.49644399e-01 ]
      - [ 1.31195337e-01, 8.74635577e-02, 8.74635577e-02, 6.70553967e-02,
          8.89212862e-02, 3.64431478e-02, 8.16326514e-02, 2.62390673e-02,
          9.03790072e-02, 3.93586010e-02, 3.64431478e-02, 0.,
          8.45481083e-02, 1.34110793e-01, 8.74635577e-03, 0.,
          3.73177856e-01, 2.33236149e-01, 1.66180760e-01, 2.27405250e-01,
          3.95043731e-01, 2.97376096e-01, 2.14285716e-01, 9.32944641e-02,
          2.04081625e-01, 2.72594750e-01, 3.44023317e-01, 2.62390673e-01,
          3.48396510e-01, 4.51895036e-02, 1.93877548e-01, 8.06122482e-01 ]
      - [ 1.00313477e-01, 2.82131657e-02, 0., 2.19435729e-02,
          1.11285269e-01, 1.22257054e-01, 3.13479616e-03, 7.21003115e-02,
          8.62068981e-02, 4.38871458e-02, 9.09090936e-02, 8.62068981e-02,
          7.21003115e-02, 0., 6.89655170e-02, 9.24764872e-02,
          1.50470212e-01, 3.08777422e-01, 3.07210028e-01, 2.33542323e-01,
          3.69905949e-01, 1.94357365e-01, 1.63009405e-01, 2.72727281e-01,
          4.05956119e-01, 1.41065821e-01, 3.62068951e-01, 9.71786827e-02,
          2.02194363e-01, 3.38557988e-01, 2.60188103e-01, 7.39811897e-01 ]
      - [ 7.32984319e-02, 3.31588127e-02, 1.74520072e-03, 2.96684112e-02,
          1.04712039e-01, 9.07504335e-02, 3.49040143e-03, 1.16928443e-01,
          9.77312401e-02, 7.15532303e-02, 4.88656200e-02, 9.07504335e-02,
          2.79232115e-02, 8.72600358e-03, 1.27399653e-01, 7.32984319e-02,
          1.37870863e-01, 3.15881312e-01, 3.08900535e-01, 2.37347305e-01,
          3.03664923e-01, 2.04188481e-01, 1.81500882e-01, 3.10645729e-01,
          2.86212921e-01, 1.32635251e-01, 3.01919729e-01, 1.51832461e-01,
          2.05933690e-01, 3.40314150e-01, 2.14659691e-01, 7.85340309e-01 ]
      - [ 2.99295783e-02, 7.04225339e-03, 0., 8.09859186e-02,
          1.40845075e-01, 1.16197184e-01, 0., 9.15492922e-02,
          9.15492922e-02, 4.92957756e-02, 9.50704217e-02, 1.19718313e-01,
          9.85915512e-02, 0., 4.40140851e-02, 3.52112688e-02,
          1.17957748e-01, 3.48591566e-01, 3.55633795e-01, 1.77816898e-01,
          3.60915482e-01, 1.72535211e-01, 1.39084503e-01, 3.27464789e-01,
          2.76408464e-01, 2.28873253e-01, 2.94014096e-01, 1.72535211e-01,
          2.39436626e-01, 2.94014096e-01, 2.60563374e-01, 7.39436626e-01 ]
      - [ 1.19515888e-01, 5.74886538e-02, 0., 7.56429648e-03,
          1.05900154e-01, 1.05900154e-01, 1.51285930e-02, 6.95915297e-02,
          9.68229920e-02, 2.11800300e-02, 9.37972739e-02, 9.68229920e-02,
          2.72314679e-02, 0., 8.47201198e-02, 9.83358547e-02,
          1.84568837e-01, 2.96520442e-01, 3.08623284e-01, 2.10287437e-01,
          3.49470496e-01, 1.84568837e-01, 1.93645984e-01, 2.72314668e-01,
          4.17549163e-01, 7.11043850e-02, 3.88804853e-01, 9.22844186e-02,
          1.45234495e-01, 3.73676240e-01, 2.36006051e-01, 7.63993919e-01 ]
      - [ 1.23145401e-01, 5.34124635e-02, 0., 1.18694361e-02,
          1.09792285e-01, 1.02373891e-01, 7.41839781e-03, 7.71513358e-02,
          9.79228467e-02, 2.37388723e-02, 8.01186934e-02, 9.79228467e-02,
          3.56083103e-02, 0., 8.60534161e-02, 9.34718102e-02,
          1.88427299e-01, 2.96735913e-01, 2.99703270e-01, 2.15133533e-01,
          3.66468847e-01, 1.79525226e-01, 1.73590511e-01, 2.80415416e-01,
          3.99109781e-01, 7.86350146e-02, 3.88724029e-01, 9.64391679e-02,
          1.57270029e-01, 3.57566774e-01, 2.13649854e-01, 7.86350131e-01 ]
      - [ 7.91366920e-02, 0., 0., 0., 1.43884897e-01, 8.99280608e-02,
          5.75539581e-02, 2.87769791e-02, 1.56474814e-01, 1.25899285e-01,
          1.25899285e-01, 1.09712228e-01, 8.27338099e-02, 0., 0., 0.,
          7.91366920e-02, 3.20143908e-01, 5.17985582e-01, 8.27338099e-02,
          4.62230206e-01, 2.15827346e-01, 1.83453247e-01, 1.38489202e-01,
          2.94964045e-01, 2.66187042e-01, 3.12949657e-01, 8.63309354e-02,
          3.65107894e-01, 2.35611513e-01, 3.99280578e-01, 6.00719392e-01 ]
      - [ 7.67824501e-02, 0., 0., 0., 1.44424126e-01, 7.31261447e-02,
          7.31261447e-02, 6.76416829e-02, 1.51736751e-01, 1.09689213e-01,
          1.09689213e-01, 1.09689213e-01, 8.40950608e-02, 0., 0., 0.,
          7.67824501e-02, 3.58318090e-01, 4.80804384e-01, 8.40950608e-02,
          4.57038403e-01, 1.82815358e-01, 1.82815358e-01, 1.77330896e-01,
          2.59597808e-01, 2.66910434e-01, 2.94332713e-01, 1.40767828e-01,
          3.45521033e-01, 2.19378427e-01, 3.65630716e-01, 6.34369254e-01 ]
      - [ 6.34920672e-02, 0., 0., 0., 1.39329806e-01, 8.81834179e-02,
          5.64373881e-02, 2.82186940e-02, 1.53439149e-01, 1.23456791e-01,
          1.26984134e-01, 1.39329806e-01, 8.11287463e-02, 0., 0., 0.,
          6.34920672e-02, 3.12169313e-01, 5.43209910e-01, 8.11287463e-02,
          4.37389761e-01, 2.11640209e-01, 1.83421522e-01, 1.67548507e-01,
          2.78659612e-01, 2.61022925e-01, 2.91005284e-01, 8.46560821e-02,
          3.58024687e-01, 2.66313940e-01, 3.95061731e-01, 6.04938269e-01 ]
      - [ 7.67918080e-02, 0., 0., 1.70648471e-02, 1.38225257e-01,
          1.26279861e-01, 1.36518776e-01, 1.19453922e-01, 1.36518776e-01,
          8.53242353e-02, 5.46075068e-02, 2.04778165e-02, 8.87372047e-02,
          0., 0., 0., 9.38566551e-02, 5.20477831e-01, 2.96928346e-01,
          8.87372047e-02, 4.40273046e-01, 2.11604089e-01, 1.91126287e-01,
          1.56996578e-01, 2.57679164e-01, 3.27645063e-01, 3.41296911e-01,
          2.73037553e-01, 3.10580224e-01, 7.50853270e-02, 4.02730376e-01,
          5.97269654e-01 ]
      - [ 6.54362440e-02, 1.00671137e-02, 5.70469797e-02, 8.72483253e-02,
          1.59395978e-01, 1.56040266e-01, 1.44295305e-01, 8.55704695e-02,
          1.27516776e-01, 2.34899335e-02, 0., 0., 8.38926211e-02, 0., 0.,
          0., 2.19798669e-01, 5.45302033e-01, 1.51006714e-01,
          8.38926211e-02, 4.36241627e-01, 1.89597309e-01, 2.01342285e-01,
          1.72818795e-01, 2.21476510e-01, 3.38926196e-01, 3.90939593e-01,
          3.74161065e-01, 2.34899327e-01, 0., 3.23825508e-01,
          6.76174521e-01 ]
      - [ 7.74647892e-02, 9.85915512e-02, 1.02816902e-01, 8.45070407e-02,
          4.78873253e-02, 3.38028185e-02, 2.53521129e-02, 6.05633818e-02,
          0., 2.81690136e-02, 2.81690136e-02, 6.90140873e-02,
          1.11267604e-01, 1.15492955e-01, 8.59154910e-02, 3.09859160e-02,
          3.63380283e-01, 1.67605639e-01, 1.25352114e-01, 3.43661964e-01,
          2.36619711e-01, 2.76056349e-01, 2.42253512e-01, 2.45070428e-01,
          1.70422539e-01, 2.49295771e-01, 2.57746488e-01, 2.73239434e-01,
          2.54929572e-01, 2.14084506e-01, 1.15492955e-01, 8.84507060e-01 ]
      - [ 5.14372177e-02, 9.07715559e-02, 9.07715559e-02, 4.68986370e-02,
          5.59757948e-02, 6.20272309e-02, 3.02571859e-02, 7.71558210e-02,
          1.81543119e-02, 3.02571859e-02, 3.02571859e-02, 7.11043850e-02,
          1.11951590e-01, 9.07715559e-02, 9.07715559e-02, 5.14372177e-02,
          2.79878974e-01, 2.25416034e-01, 1.49773061e-01, 3.44931930e-01,
          2.37518907e-01, 2.73827523e-01, 2.42057487e-01, 2.46596068e-01,
          1.95158854e-01, 2.19364598e-01, 2.60211796e-01, 2.45083198e-01,
          2.51134634e-01, 2.43570343e-01, 1.52798787e-01, 8.47201228e-01 ]
      - [ 9.92000028e-02, 9.60000008e-02, 9.60000008e-02, 6.23999983e-02,
          3.51999998e-02, 3.20000015e-02, 1.60000008e-02, 6.08000010e-02,
          1.11999996e-02, 1.60000008e-02, 1.60000008e-02, 6.08000010e-02,
          9.27999988e-02, 1.47200003e-01, 9.60000008e-02, 6.23999983e-02,
          3.53599995e-01, 1.44000009e-01, 1.04000002e-01, 3.98400009e-01,
          2.38399997e-01, 2.91200012e-01, 2.24000007e-01, 2.46399999e-01,
          2.09600002e-01, 1.87199995e-01, 2.62400001e-01, 2.35200003e-01,
          2.67199993e-01, 2.35200003e-01, 8.00000057e-02, 9.20000017e-01 ]
      - [ 7.23860562e-02, 1.87667552e-02, 0., 0., 5.36193028e-02,
          1.03217155e-01, 6.97050914e-02, 1.87667552e-02, 1.20643433e-02,
          4.55764085e-02, 1.34048253e-01, 1.13941021e-01, 1.23324394e-01,
          1.08579092e-01, 8.04289579e-02, 4.55764085e-02, 9.11528096e-02,
          2.45308310e-01, 3.05630028e-01, 3.57908845e-01, 2.61394083e-01,
          2.76139408e-01, 2.84182310e-01, 1.78284183e-01, 3.55227888e-01,
          2.38605887e-01, 2.47989267e-01, 8.84718448e-02, 2.89544225e-01,
          3.73994648e-01, 3.52546901e-01, 6.47453070e-01 ]
      - [ 2.00803205e-02, 1.46586344e-01, 8.43373463e-02, 2.81124506e-02,
          4.01606411e-03, 5.22088371e-02, 2.00803220e-01, 1.76706821e-01,
          1.80722885e-02, 1.56626508e-01, 7.63052180e-02, 3.61445770e-02,
          0., 0., 0., 0., 2.79116452e-01, 4.33734953e-01, 2.87148595e-01,
          0., 4.21686731e-02, 3.55421692e-01, 3.61445785e-01,
          2.40963846e-01, 1.48594379e-01, 3.85542184e-01, 2.22891569e-01,
          4.89959836e-01, 1.74698800e-01, 1.12449795e-01, 4.85943794e-01,
          5.14056206e-01 ]
      - [ 7.33333305e-02, 1.99999996e-02, 0., 0., 4.66666669e-02,
          1.19999997e-01, 1.25000000e-01, 6.49999976e-02, 1.33333337e-02,
          7.16666654e-02, 1.65000007e-01, 1.15000002e-01, 7.66666681e-02,
          7.33333305e-02, 3.50000001e-02, 0., 9.33333337e-02,
          3.56666654e-01, 3.65000010e-01, 1.85000002e-01, 2.09999993e-01,
          2.84999996e-01, 3.25000018e-01, 1.80000007e-01, 3.58333349e-01,
          2.73333341e-01, 2.59999990e-01, 1.89999998e-01, 2.34999999e-01,
          3.14999998e-01, 4.81666684e-01, 5.18333316e-01 ]
      - [ 2.05338802e-02, 1.84804931e-01, 1.31416842e-01, 7.59753585e-02,
          8.21355265e-03, 9.65092406e-02, 1.97125256e-01, 1.43737167e-01,
          1.64271053e-02, 9.85626280e-02, 2.66940445e-02, 0., 0., 0., 0.,
          0., 4.12731022e-01, 4.45585221e-01, 1.41683772e-01, 0.,
          4.51745391e-02, 3.79876792e-01, 3.55236143e-01, 2.19712526e-01,
          1.43737167e-01, 3.71663243e-01, 3.10061604e-01, 5.48254609e-01,
          1.14989735e-01, 2.66940445e-02, 4.18891162e-01, 5.81108809e-01 ]
      - [ 7.99999982e-02, 2.66666664e-03, 0., 3.46666649e-02,
          1.33333340e-01, 1.05333336e-01, 1.09333336e-01, 7.86666647e-02,
          1.30666673e-01, 8.53333324e-02, 9.33333337e-02, 7.99999982e-02,
          3.73333320e-02, 0., 0., 2.93333326e-02, 1.17333330e-01,
          4.26666677e-01, 3.89333338e-01, 6.66666627e-02, 3.81333351e-01,
          1.93333328e-01, 2.02666670e-01, 2.22666666e-01, 3.07999998e-01,
          2.66666651e-01, 3.21333349e-01, 2.22666666e-01, 2.53333330e-01,
          2.02666670e-01, 3.93333346e-01, 6.06666684e-01 ]
      - [ 3.76766101e-02, 0., 3.13971750e-03, 5.49450554e-02,
          8.79120901e-02, 1.19309261e-01, 1.28728420e-01, 6.12244904e-02,
          7.69230798e-02, 1.28728420e-01, 1.22448981e-01, 6.75039217e-02,
          7.37833604e-02, 3.13971750e-03, 0., 3.45368907e-02,
          9.57613811e-02, 3.97174269e-01, 3.95604402e-01, 1.11459970e-01,
          2.76295125e-01, 2.51177400e-01, 2.54317105e-01, 2.18210354e-01,
          3.13971758e-01, 3.86185259e-01, 2.44897962e-01, 2.48037681e-01,
          2.82574564e-01, 2.24489793e-01, 4.99215066e-01, 5.00784934e-01 ]
      - [ 6.16332842e-03, 0., 3.08166421e-03, 5.85516170e-02,
          1.24807395e-01, 8.62865970e-02, 1.06317408e-01, 8.01232681e-02,
          8.62865970e-02, 1.21725731e-01, 1.20184898e-01, 1.07858241e-01,
          7.08782747e-02, 3.08166421e-03, 0., 2.46533137e-02,
          6.77966103e-02, 3.97534668e-01, 4.36055481e-01, 9.86132547e-02,
          2.88135588e-01, 2.11093992e-01, 2.29583964e-01, 2.71186441e-01,
          2.37288132e-01, 3.57473016e-01, 2.17257321e-01, 2.48073950e-01,
          2.81972259e-01, 2.52696455e-01, 4.34514642e-01, 5.65485358e-01 ]
      - [ 5.59875593e-02, 0., 6.22083992e-03, 5.90979792e-02,
          9.48678106e-02, 1.08864695e-01, 1.18195958e-01, 6.68740273e-02,
          8.55365470e-02, 1.16640747e-01, 1.05754279e-01, 7.93157071e-02,
          6.53188154e-02, 3.11041996e-03, 0., 3.42146195e-02,
          1.21306375e-01, 3.88802499e-01, 3.87247264e-01, 1.02643855e-01,
          3.01710725e-01, 2.28615865e-01, 2.30171084e-01, 2.39502341e-01,
          3.04821163e-01, 3.59253496e-01, 2.59720057e-01, 2.50388801e-01,
          2.70606518e-01, 2.19284609e-01, 4.49455678e-01, 5.50544322e-01 ]
      - [ 7.37179518e-02, 7.37179518e-02, 6.41025677e-02, 4.64743599e-02,
          4.16666679e-02, 1.41025648e-01, 1.55448720e-01, 9.77564082e-02,
          2.40384620e-02, 1.29807696e-01, 3.84615399e-02, 0.,
          9.13461521e-02, 2.24358980e-02, 0., 0., 2.58012831e-01,
          4.35897440e-01, 1.92307696e-01, 1.13782048e-01, 2.30769232e-01,
          3.66987199e-01, 2.58012831e-01, 1.44230768e-01, 2.53205150e-01,
          4.23076928e-01, 3.30128223e-01, 3.63782048e-01, 2.67628193e-01,
          3.84615399e-02, 4.64743614e-01, 5.35256445e-01 ]
      - [ 9.71993431e-02, 3.95387150e-02, 4.94233938e-03, 0.,
          1.31795714e-02, 1.48270175e-01, 1.41680390e-01, 1.05436571e-01,
          4.11861613e-02, 1.51565075e-01, 9.71993431e-02, 5.93080707e-02,
          7.74299800e-02, 2.30642501e-02, 0., 0., 1.41680405e-01,
          4.08566713e-01, 3.49258661e-01, 1.00494228e-01, 2.28995055e-01,
          3.62438202e-01, 2.43822068e-01, 1.64744645e-01, 3.42668861e-01,
          3.70675445e-01, 2.98187792e-01, 2.52059311e-01, 2.93245465e-01,
          1.56507418e-01, 5.38715005e-01, 4.61284995e-01 ]
      - [ 1.19379848e-01, 9.30232555e-03, 0., 0., 9.92248058e-02,
          1.16279073e-01, 4.18604650e-02, 0., 9.92248058e-02,
          1.44186050e-01, 1.39534891e-01, 1.25581399e-01, 9.61240306e-02,
          9.30232555e-03, 0., 0., 1.28682166e-01, 2.57364333e-01,
          5.08527160e-01, 1.05426356e-01, 4.13953483e-01, 2.79069781e-01,
          1.81395352e-01, 1.25581399e-01, 3.75193805e-01, 2.82170534e-01,
          3.44186068e-01, 4.18604650e-02, 3.48837197e-01, 2.65116274e-01,
          4.41860467e-01, 5.58139563e-01 ]
      - [ 8.97887349e-02, 1.05633801e-02, 0., 0., 1.12676054e-01,
          1.30281687e-01, 8.80281702e-02, 6.16197176e-02, 1.02112673e-01,
          1.26760557e-01, 8.80281702e-02, 6.16197176e-02, 1.21478871e-01,
          7.04225339e-03, 0., 0., 1.00352116e-01, 3.92605633e-01,
          3.78521115e-01, 1.28521129e-01, 4.26056325e-01, 2.74647892e-01,
          1.76056340e-01, 1.23239435e-01, 3.08098584e-01, 3.36267591e-01,
          3.43309850e-01, 1.49647892e-01, 3.57394367e-01, 1.49647892e-01,
          4.33098584e-01, 5.66901386e-01 ]
      - [ 2.87162159e-02, 0., 1.52027030e-02, 9.12162140e-02,
          8.44594613e-02, 1.85810812e-02, 1.21621624e-01, 1.16554052e-01,
          1.30067572e-01, 1.28378376e-01, 2.53378376e-02, 6.75675645e-02,
          1.40202701e-01, 1.85810812e-02, 0., 1.35135138e-02,
          1.35135129e-01, 3.41216207e-01, 3.51351351e-01, 1.72297299e-01,
          3.83445948e-01, 1.65540546e-01, 1.62162170e-01, 2.88851351e-01,
          8.61486495e-02, 4.81418908e-01, 1.31756753e-01, 3.44594598e-01,
          4.17229742e-01, 1.06418915e-01, 2.93918908e-01, 7.06081092e-01 ]
      - [ 3.34394909e-02, 0., 4.77707013e-03, 8.59872624e-02,
          6.52866215e-02, 1.75159238e-02, 1.14649683e-01, 1.32165611e-01,
          1.27388537e-01, 1.22611463e-01, 2.54777074e-02, 7.96178356e-02,
          1.33757964e-01, 1.43312104e-02, 0., 4.29936312e-02,
          1.24203824e-01, 3.29617828e-01, 3.55095536e-01, 1.91082805e-01,
          3.59872609e-01, 1.54458597e-01, 1.44904464e-01, 3.40764344e-01,
          1.19426757e-01, 4.57006365e-01, 1.16242036e-01, 3.37579638e-01,
          3.98089170e-01, 1.48089170e-01, 2.80254781e-01, 7.19745219e-01 ]
      - [ 5.57377040e-02, 0., 4.91803279e-03, 1.01639345e-01,
          6.55737668e-02, 4.91803279e-03, 1.16393439e-01, 1.29508197e-01,
          1.04918033e-01, 1.19672135e-01, 2.95081958e-02, 6.55737668e-02,
          1.40983611e-01, 1.80327874e-02, 0., 4.26229499e-02,
          1.62295088e-01, 3.16393435e-01, 3.19672137e-01, 2.01639354e-01,
          3.67213130e-01, 1.42622948e-01, 1.50819674e-01, 3.39344263e-01,
          1.32786885e-01, 4.78688538e-01, 1.26229510e-01, 3.52459013e-01,
          3.83606553e-01, 1.37704909e-01, 2.70491809e-01, 7.29508221e-01 ]
      - [ 6.22406639e-02, 6.22406639e-02, 1.86721999e-02, 0.,
          2.07468891e-03, 3.94190885e-02, 2.03319505e-01, 9.95850638e-02,
          2.07468891e-03, 3.31950225e-02, 1.90871373e-01, 9.95850638e-02,
          7.46887997e-02, 6.22406639e-02, 4.97925319e-02, 0.,
          1.43153533e-01, 3.44398350e-01, 3.25726151e-01, 1.86721995e-01,
          1.41078845e-01, 1.97095439e-01, 4.62655604e-01, 1.99170128e-01,
          2.92531133e-01, 3.11203331e-01, 1.65975109e-01, 3.21576774e-01,
          1.72199175e-01, 3.40248972e-01, 4.66804981e-01, 5.33195019e-01 ]
      - [ 7.93201104e-02, 6.79886714e-02, 5.66572249e-02, 3.96600552e-02,
          1.04815863e-01, 5.80736548e-02, 9.91501436e-02, 9.91501380e-03,
          7.93201104e-02, 3.54107656e-02, 1.06232293e-01, 2.40793210e-02,
          9.20679867e-02, 1.07648723e-01, 5.66572230e-03, 3.39943357e-02,
          2.43626058e-01, 2.71954685e-01, 2.45042488e-01, 2.39376768e-01,
          3.55524063e-01, 2.69121826e-01, 2.67705381e-01, 1.07648723e-01,
          2.77620405e-01, 2.66288936e-01, 3.10198307e-01, 2.05382437e-01,
          3.14447582e-01, 1.69971675e-01, 2.98866868e-01, 7.01133132e-01 ]
      - [ 9.02964994e-02, 9.43396240e-02, 9.43396240e-02, 5.52560650e-02,
          9.02964994e-02, 4.44743931e-02, 8.76010805e-02, 0.,
          7.27762803e-02, 3.36927213e-02, 1.09164417e-01, 4.58221026e-02,
          9.02964994e-02, 8.35579485e-02, 0., 8.08625296e-03,
          3.34231824e-01, 2.22371966e-01, 2.61455536e-01, 1.81940705e-01,
          3.43665779e-01, 2.56064683e-01, 2.91105121e-01, 1.09164417e-01,
          2.52021551e-01, 2.66846359e-01, 3.19407016e-01, 2.37196773e-01,
          2.80323446e-01, 1.63072765e-01, 2.74932623e-01, 7.25067377e-01 ]
      - [ 6.07082620e-02, 7.75716677e-02, 9.10623968e-02, 6.40809461e-02,
          1.11298479e-01, 6.57672882e-02, 7.58853257e-02, 0.,
          9.61214155e-02, 4.72175367e-02, 1.09612145e-01, 4.55311984e-02,
          6.07082620e-02, 9.10623968e-02, 3.37268133e-03, 0.,
          2.93423265e-01, 2.52951086e-01, 2.98482299e-01, 1.55143335e-01,
          3.28836411e-01, 2.81618893e-01, 2.79932559e-01, 1.09612145e-01,
          2.36087695e-01, 2.47892067e-01, 3.15345705e-01, 2.31028676e-01,
          2.95109600e-01, 1.58516020e-01, 2.98482299e-01, 7.01517701e-01 ]
      - [ 5.73888086e-02, 5.73888086e-02, 7.89096132e-02, 4.30416055e-02,
          1.01865135e-01, 6.88665733e-02, 1.07604019e-01, 0.,
          6.31276891e-02, 2.15208028e-02, 1.21951222e-01, 3.58680040e-02,
          1.09038740e-01, 1.21951222e-01, 1.43472024e-03, 1.00430418e-02,
          2.36728832e-01, 2.78335720e-01, 2.42467716e-01, 2.42467731e-01,
          3.31420362e-01, 2.69727409e-01, 3.09899569e-01, 8.89526531e-02,
          2.58249640e-01, 2.81205177e-01, 2.85509318e-01, 2.29555234e-01,
          3.15638453e-01, 1.69296995e-01, 3.19942623e-01, 6.80057406e-01 ]
   decision_functions:
      -
         sv_count: 5
         rho: 2.8385353848786521e-01
         alpha: [ 2.1204437082751322e+00, 5.0405169292439105e+00,
             -4.1319862800252087e+00, -2.2048018182331885e+00,
             -8.2417253926065015e-01 ]
         index: [ 0, 6, 10, 11, 13 ]
      -
         sv_count: 3
         rho: 2.4134791763510155e-01
         alpha: [ 1.4226560595488845e+01, -6.7642304655261025e+00,
             -7.4623301299627407e+00 ]
         index: [ 2, 15, 17 ]
      -
         sv_count: 5
         rho: 1.0793506735285145e-01
         alpha: [ 1.5531445429661243e+01, 8.9582570333940374e+00,
             -1.6138320962176405e+01, -7.1982871366592827e+00,
             -1.1530943642195961e+00 ]
         index: [ 0, 6, 24, 26, 28 ]
      -
         sv_count: 5
         rho: 1.9925617751856306e-01
         alpha: [ 4.5784817152502404e+00, 6.7728993628208789e+00,
             -4.4392049096016324e+00, -4.1366920621535375e+00,
             -2.7754841063159525e+00 ]
         index: [ 2, 5, 29, 32, 33 ]
      -
         sv_count: 5
